tree
version=v4
num_class=1
num_tree_per_iteration=1
label_index=0
max_feature_idx=29
objective=regression
feature_names=user_age user_income_encoded user_total_interactions user_avg_rating user_category_diversity user_avg_price user_premium_ratio item_price item_rating item_review_count item_popularity_score item_engagement_score item_conversion_rate item_category_encoded item_brand_popularity price_compatibility rating_compatibility category_match premium_compatibility als_score embedding_cosine user_embedding_norm item_embedding_norm user_top_factor item_top_factor hour_of_day day_of_week is_weekend is_evening is_morning
feature_infos=[18:65] [0.20000000000000001:0.80000000000000004] [1:23] none none none none [6.9500000000000002:1795.0999999999999] [3:5] [0:500] [47.613235294117644:93.138345864661659] [90.078125:118.90259740259741] none [0.070000000000000007:0.97999999999999998] none [0.19442263018790901:0.99948117253839286] [0.69999999999999996:1] [0:1] [0.30000000000000004:0.69999999999999996] [-1.7486244117228922:4.488394142126924] [-0.56333688206341059:0.99999999763980163] [0.44535345878690746:8.6422431798148089] [0.068642737806497059:0.98560511263523054] [0.096435177859339638:3.5552595157656328] [0.027773012024074888:0.41703434572244125] none none none none none
tree_sizes=501 2688 2611 2961 3146 2961 3144 3417 3726 3449 4230 4253 4364 4078 5307 5021 4657 7589 7981 12292 12303 12304 12213 12313 12296 12280 12235 12274 12266 12246 12277 12238 12275 12283 12318 12274 12308 12274 12270 12277 12284 12267 12283 12278 12239 12277 12307 12227 12261 12264 12260 12254 12272 12287 12306 12257 12260 12273 12288 12265 12046 12218 12199 12194 12174 12248 12206 12210 12192 12264 12181 12152 12196 12244 12181 12200 12190 12203 12224 12237 12212 12234 12192 12247 12229 12236 12187 12173 12181 11997 12170 12125 12198 12139 12207 12178 12114 12134 12185 12182 12184 12194 12195 12179 12228 12162 12132 12146 12159 12234 12194 12130 12197 12152 12189 12183 12221 12233 12196 12140 12208 12219 12177 12204 12179 12195 12110 12180 12179 12203 12212 12178 12194 12241 12209 12212 12190 12160 12193 12218 12209 12181 12135 12196 12205 12214 12102 12193 12245 12177 12227 12212 12153 12211 12231 12216 12212 12206 12223 12215 12174 12197 12223 12203 12227 12213 12179 12180 12150 12234 12274 12154 12185 12155 12196 12092 12254 12218 12158 12196 12211 12209 12226 12195 12183 12214 12239 12211 12255 12182 12247 12225 12162 12210 12155 12183 12216 12200 12193

Tree=0
num_leaves=4
num_cat=0
split_feature=19 19 24
split_gain=693.085 0.119048 1.77636e-15
threshold=1.3218387908591225 0.74890959417477743 0.25827565706967109
decision_type=2 2 2
left_child=1 2 -1
right_child=-2 -3 -4
leaf_value=0.023625000081956386 0.35131731662899257 0.027625000059604644 0.023625000081956386
leaf_weight=7252 65 75 2129
leaf_count=7252 65 75 2129
internal_value=0.0258937 0.0236567 0.023625
internal_weight=9521 9456 9381
internal_count=9521 9456 9381
is_linear=0
shrinkage=1


Tree=1
num_leaves=29
num_cat=0
split_feature=21 9 9 0 0 7 23 23 11 11 24 24 21 17 21 21 0 9 21 8 7 21 0 9 0 0 0 2
split_gain=20.2858 6.08987 4.59609 3.75898 4.92461 5.57061 2.54618 2.37633 1.45262 4.68761 3.3527 3.47573 0.874394 1.52536 0.120904 0.0689952 0.197874 0.0538189 0.0512226 0.00191898 0.00147192 7.69802e-06 7.1241e-06 9.11681e-07 8.88178e-16 1.38778e-17 1.38778e-17 1.38778e-17
threshold=2.4961818855181268 10.500000000000002 345.50000000000006 28.500000000000004 40.500000000000007 503.55000000000007 1.6538018175105704 1.2903759965457142 102.66208868803842 102.12784237726099 0.2420055807207854 0.26773431528732455 5.837262422724339 1.0000000180025095e-35 4.1631455648724272 0.94760828621211723 24.500000000000004 445.00000000000006 3.389059432089423 4.7500000000000009 596.08000000000004 5.0396571636817704 34.500000000000007 79.500000000000014 63.500000000000007 38.500000000000007 40.500000000000007 10.500000000000002
decision_type=2 2 2 2 2 2 2 2 2 2 2 2 2 2 2 2 2 2 2 2 2 2 2 2 2 2 2 2
left_child=15 -2 8 7 5 -5 -6 -4 9 10 14 -12 13 18 -3 24 -17 -9 -10 21 22 23 -16 -20 -1 -18 -25 -26
right_child=1 2 3 4 6 -7 -8 17 12 -11 11 -13 -14 -15 20 16 25 -19 19 -21 -22 -23 -24 26 27 -27 -28 -29
leaf_value=-0.0023624999448657036 0.041568268164992338 0.0029741152413189412 0.022020893656308688 0.050756493953949947 0.0011286740005016329 0.010991345850581473 0.029007960803806784 -0.0032061846834825882 0.00091653478642304744 0.037324001341355294 0.038864648448047684 0.0021232986607803749 0.010884352849627084 0.015524862164498441 -0.0024270160844729795 0.0049661153815686709 -0.0023624999448657036 0.00096611547842621816 -0.0023773147621088558 -0.0030418845824897291 -0.0030364064536258289 -0.0024015243415062022 -0.0023801470065818115 -0.0023624999448657036 -0.0023624999448657036 -0.0023624999448657036 -0.0023624999448657036 -0.0023624999448657036
leaf_weight=7714 60 50 63 98 95 55 50 81 51 53 51 52 88 56 62 50 77 50 54 50 51 82 68 130 65 63 50 52
leaf_count=7714 60 50 63 98 95 55 50 81 51 53 51 52 88 56 62 50 77 50 54 50 51 82 68 130 65 63 50 52
internal_value=-0.000320698 0.0103532 0.00905259 0.0168947 0.0239473 0.0364618 0.0107422 0.00606145 0.00498262 0.00969562 0.00531147 0.0203156 0.0017314 2.85229e-05 -0.00137868 -0.00231682 -0.000433917 -0.0016137 -0.00205252 -0.00246624 -0.00258111 -0.00237516 -0.0024025 -0.00236592 -0.0023625 -0.0023625 -0.0023625 -0.0023625
internal_weight=9521 1500 1440 492 298 153 145 194 948 387 334 103 561 473 231 8021 190 131 417 366 181 316 130 234 7831 140 180 117
internal_count=9521 1500 1440 492 298 153 145 194 948 387 334 103 561 473 231 8021 190 131 417 366 181 316 130 234 7831 140 180 117
is_linear=0
shrinkage=0.1


Tree=2
num_leaves=27
num_cat=0
split_feature=20 21 21 20 22 1 20 24 22 7 17 0 0 23 10 24 20 21 24 24 24 21 0 24 7 0
split_gain=561.064 0.182273 0.0273505 0.0262698 0.0219624 0.039763 0.0129386 0.00687795 0.00935394 0.00424746 0.00418448 0.00415832 0.00377938 0.00519106 0.00309916 0.00262152 0.00262775 0.00321722 0.00219906 0.00340685 0.00246166 0.000619644 0.00169187 0.000173351 8.88178e-16 6.93889e-18
threshold=0.45974444065626502 2.4961818855181268 5.9534623038018806 0.084804096583857111 0.80471600628024198 0.35000000000000003 0.2228259925263277 0.24084713933608468 0.69166781784418752 519.58500000000015 1.0000000180025095e-35 30.500000000000004 26.500000000000004 1.2903759965457142 69.318181818181827 0.16106974085824793 0.081546138265395127 3.7698644377858859 0.18127603230594744 0.20382273937452652 0.21849038475657523 0.94760828621211723 25.500000000000004 0.20978268482869269 1025.5400000000002 40.500000000000007
decision_type=2 2 2 2 2 2 2 2 2 2 2 2 2 2 2 2 2 2 2 2 2 2 2 2 2 2
left_child=1 21 4 11 6 -6 7 10 -9 14 12 -4 13 -3 -10 -14 17 -17 -19 -20 -21 24 -23 -15 -1 -24
right_child=-2 2 3 -5 5 -7 -8 8 9 -11 -12 -13 15 23 -16 16 -18 18 19 20 -22 22 25 -25 -26 -27
leaf_value=-0.0021262500435113908 0.29026333989406172 -0.0032862696566699464 -0.0030848142759943454 -0.0064529442712664602 0.00017578061670064926 -0.0035739016238479845 -0.0047875485431991133 -0.0046463351127588089 -0.0042498956402314122 -0.0028243544016112675 -0.003732187629987796 -0.0042325110860953205 -0.0038041718437203339 -0.0021798603895415622 -0.0032581843030841454 -0.0026629107390961997 -0.0026212661375044563 -0.0028138935600441916 -0.0040973140219492579 -0.0028199998580891155 -0.0036742493340914902 -0.0028016321726289451 -0.0021262500435113908 -0.0024161032550036911 -0.0021262500435113908 -0.0021262500435113908
leaf_weight=6961 66 81 54 50 52 62 57 72 58 94 90 76 56 82 69 82 98 54 70 69 66 51 83 50 865 53
leaf_count=6961 66 81 54 50 52 62 57 72 58 94 90 76 56 82 69 82 98 54 70 69 66 51 83 50 865 53
internal_value=-0.000288628 -0.00231681 -0.00335182 -0.00450499 -0.00318734 -0.00186352 -0.0033188 -0.00324206 -0.00365643 -0.00333393 -0.00308992 -0.00375578 -0.00300828 -0.00265606 -0.00371109 -0.00315984 -0.00307764 -0.0032088 -0.00338163 -0.00353118 -0.00323763 -0.00213055 -0.00231045 -0.00226935 -0.00212625 -0.00212625
internal_weight=9521 9455 1442 180 1262 114 1148 1091 293 221 798 130 708 213 127 495 439 341 259 205 135 8013 187 132 7826 136
internal_count=9521 9455 1442 180 1262 114 1148 1091 293 221 798 130 708 213 127 495 439 341 259 205 135 8013 187 132 7826 136
is_linear=0
shrinkage=0.1


Tree=3
num_leaves=31
num_cat=0
split_feature=19 21 9 9 0 0 7 24 11 24 19 21 21 17 21 21 21 20 11 11 21 21 21 0 15 21 20 0 0 0
split_gain=456.351 0.141059 0.0533045 0.040809 0.0326836 0.03931 0.0492806 0.0136671 0.0311773 0.0276401 0.0105356 0.0069097 0.00509397 0.0034264 0.00443596 0.00208727 0.00187741 0.00161973 0.00109709 0.00184588 0.000724279 0.000332019 0.000276297 0.000398461 0.000165477 7.39136e-05 2.17559e-05 9.05674e-06 4.44089e-16 2.77556e-17
threshold=1.3218387908591225 2.6732545622764632 10.500000000000002 346.50000000000006 28.500000000000004 40.500000000000007 503.55000000000007 0.23544711568964288 102.66208868803842 0.26841984574329708 0.21019898211273116 4.5295330369057991 4.9222858967771606 1.0000000180025095e-35 5.837262422724339 5.5083822658741495 2.3936111702834251 0.34202989454843147 102.66208868803842 101.22218045112784 5.402033638396504 4.5295330369057991 0.94760828621211723 31.500000000000004 0.64077611585488248 3.6268301880066782 0.073922384682808512 30.500000000000004 20.500000000000004 19.500000000000004
decision_type=2 2 2 2 2 2 2 2 2 2 2 2 2 2 2 2 2 2 2 2 2 2 2 2 2 2 2 2 2 2
left_child=1 10 -3 7 11 6 -6 13 9 -9 16 -5 -7 14 18 24 17 22 19 21 -13 -4 28 -24 -10 -20 27 -27 29 -1
right_child=-2 2 3 4 5 12 -8 8 15 -11 -12 20 -14 -15 -16 -17 -18 -19 25 -21 -22 -23 23 -25 -26 26 -28 -29 -30 -31
leaf_value=-0.0019136250019073488 0.26380187873656935 -0.006175944954156876 -0.0021656518327918921 -0.0034971072628605564 -0.0070782112788005044 -0.0025955032408237458 -0.0031520854108608685 -0.0054629280691345537 -0.0019179156124591826 -0.00246280377300886 -0.00060487852172284829 -0.0024426169409337692 -0.0038559925443093692 -0.0028699241099221745 -0.0028301072608981587 -0.0027657747487811486 -0.0024512148865345699 -0.0024759126970401177 -0.0019596844686773319 -0.0026915435441860966 -0.0019531494487197167 -0.0018403073798303735 -0.0022821537293493746 -0.0019136250019073488 -0.0021341602943504034 -0.0018461020334678538 -0.0018877216779133853 -0.0017940490112937604 -0.0019136250019073488 -0.0019136250019073488
leaf_weight=445 65 51 55 61 83 75 52 75 75 52 61 59 56 68 74 51 67 52 58 51 62 73 50 71 67 51 51 97 7096 217
leaf_count=445 65 51 55 61 83 75 52 75 75 52 61 59 56 68 74 51 67 52 58 51 62 73 50 71 67 51 51 97 7096 217
internal_value=-0.000259765 -0.00207491 -0.00300257 -0.00288233 -0.0036619 -0.00436841 -0.00556593 -0.00249341 -0.00301773 -0.00423453 -0.0019141 -0.0026293 -0.00313434 -0.00220314 -0.00211423 -0.00221703 -0.00192409 -0.00191964 -0.00199273 -0.0021828 -0.00219182 -0.0019801 -0.00191596 -0.00206591 -0.00201995 -0.00186035 -0.0018314 -0.00181199 -0.00191363 -0.00191363
internal_weight=9521 9456 1397 1346 448 266 135 898 320 127 8059 182 131 578 510 193 7998 7931 436 179 121 128 7879 121 142 257 199 148 7758 662
internal_count=9521 9456 1397 1346 448 266 135 898 320 127 8059 182 131 578 510 193 7998 7931 436 179 121 128 7879 121 142 257 199 148 7758 662
is_linear=0
shrinkage=0.1


Tree=4
num_leaves=33
num_cat=0
split_feature=20 21 19 9 9 0 0 7 11 11 17 21 21 21 10 21 21 22 21 0 7 21 22 19 22 7 16 19 20 21 0 9
split_gain=377.405 0.153894 0.0614993 0.0397915 0.0306729 0.0215584 0.0291006 0.0381292 0.00909738 0.0322823 0.010863 0.0064115 0.00597225 0.00428862 0.00259667 0.00118618 0.000853345 0.000527805 0.000507225 0.00129887 0.000470114 0.000457751 2.079e-05 1.15255e-05 7.3741e-06 6.47014e-06 4.40229e-06 1.80317e-06 5.17942e-06 1.24574e-06 4.44089e-16 4.44089e-16
threshold=0.45974444065626502 2.4961818855181268 0.74890959417477743 12.500000000000002 346.50000000000006 28.500000000000004 40.500000000000007 503.55000000000007 102.66208868803842 102.0920353982301 1.0000000180025095e-35 5.837262422724339 4.3858826723196165 4.6763864841143592 78.414732142857162 3.9278993692700355 5.402033638396504 0.7176481227833863 0.94760828621211723 25.500000000000004 412.65500000000003 3.389059432089423 0.77693824259515221 0.055943828874033909 0.62455020677305673 676.61000000000013 0.91000000000000014 0.18378308728291415 0.32252229372199143 4.6763864841143592 63.500000000000007 495.00000000000006
decision_type=2 2 2 2 2 2 2 2 2 2 2 2 2 2 2 2 2 2 2 2 2 2 2 2 2 2 2 2 2 2 2 2
left_child=1 18 3 -3 8 12 7 -7 9 14 11 21 -6 -8 15 -5 -14 20 27 -20 -17 -10 24 -21 -23 26 -26 28 30 -27 31 -1
right_child=-2 2 -4 4 5 6 13 -9 10 -11 -12 -13 16 -15 -16 17 -18 -19 19 23 -22 22 -24 -25 25 29 -28 -29 -30 -31 -32 -33
leaf_value=-0.001722262427210808 0.23806458255558305 -0.0054040021316793104 -0.0055608515132548695 -0.002502724811035608 -0.0033050897443350756 -0.006351065635681153 -0.0021593418261357422 -0.0028368768497155266 -0.0019489406161010267 -0.0049385378298421323 -0.0031829311145525996 -0.0027583305303367877 -0.0022721760098219795 -0.0033147891543598637 -0.0028775884913137327 -0.0020296846653024359 -0.0017424159971150485 -0.0022318001950911263 -0.0023192061184375895 -0.0017052432045687076 -0.0016447728245773099 -0.0016488175635988062 -0.0016853191778063775 -0.0017656193226575853 -0.001578911456745118 -0.0016385749671608209 -0.001614412626311664 -0.0017402231557802723 -0.0016902893014690457 -0.0016167656467719511 -0.001722262427210808 -0.001722262427210808
leaf_weight=7511 66 52 79 56 53 76 58 52 50 52 66 62 68 72 52 75 55 57 51 86 55 55 50 50 80 50 62 55 51 55 116 93
leaf_count=7511 66 52 79 56 53 76 58 52 50 52 66 62 68 72 52 75 55 57 51 86 55 55 50 50 80 50 62 55 51 55 116 93
internal_value=-0.000233789 -0.00189721 -0.00284824 -0.00269102 -0.00258341 -0.003271 -0.00385312 -0.00492343 -0.00224314 -0.00264119 -0.00198254 -0.00181179 -0.00241767 -0.00279928 -0.00223623 -0.00209899 -0.00203529 -0.00197808 -0.00172607 -0.00188883 -0.00186684 -0.00166581 -0.00162559 -0.00172744 -0.0016157 -0.00160833 -0.00159441 -0.00172218 -0.00172205 -0.00162715 -0.00172226 -0.00172226
internal_weight=9521 9455 1442 1363 1311 434 258 128 877 347 530 464 176 130 295 243 123 187 8013 187 130 402 352 136 302 247 142 7826 7771 105 7720 7604
internal_count=9521 9455 1442 1363 1311 434 258 128 877 347 530 464 176 130 295 243 123 187 8013 187 130 402 352 136 302 247 142 7826 7771 105 7720 7604
is_linear=0
shrinkage=0.1


Tree=5
num_leaves=31
num_cat=0
split_feature=19 21 20 9 9 24 11 24 7 11 11 21 21 1 7 21 21 23 23 9 21 10 11 11 11 10 20 1 20 19
split_gain=340.61 0.0862423 0.044071 0.0350911 0.0257876 0.0101626 0.0195374 0.0273549 0.00930674 0.00450085 0.0115845 0.00354694 0.00221896 0.00181963 0.00161917 0.00107683 0.000950324 0.000894596 0.00265096 0.000527831 0.000311172 0.000177535 0.000176946 9.60592e-05 4.26598e-05 3.79336e-05 2.60195e-05 1.6221e-05 4.41065e-09 2.37295e-11
threshold=1.3218387908591225 2.6732545622764632 0.34202989454843147 10.500000000000002 345.50000000000006 0.24084713933608468 102.66208868803842 0.26841984574329708 412.65500000000003 102.13539818647745 103.0621911922664 5.837262422724339 2.3936111702834251 0.35000000000000003 205.00000000000003 4.1631455648724272 5.402033638396504 1.6538018175105704 1.2903759965457142 431.50000000000006 0.94760828621211723 72.113106796116526 104.66815476190477 107.80412441764868 104.68362149532712 67.910824742268048 0.093421346775462044 0.35000000000000003 0.30312787440949529 0.14773755775611905
decision_type=2 2 2 2 2 2 2 2 2 2 2 2 2 2 2 2 2 2 2 2 2 2 2 2 2 2 2 2 2 2
left_child=1 2 12 -3 5 9 7 -7 13 15 -11 22 20 19 -15 -5 21 18 -10 -6 28 -8 -12 25 -22 -24 27 -17 29 -1
right_child=-2 3 -4 4 8 6 16 -9 17 10 11 -13 -14 14 -16 26 -18 -19 -20 -21 24 -23 23 -25 -26 -27 -28 -29 -30 -31
leaf_value=-0.001550036296248436 0.2136730774028881 -0.0050280557572841651 -0.003993234530091286 -0.0018576623050167282 -0.00282662120833993 -0.0048993534670444209 -0.0015087408312995519 -0.001872969531853284 -0.0027421141974627973 -0.0034262971673160794 -0.0017887401147163474 -0.0024738729916631234 -0.002110390679445118 -0.0039927980021363307 -0.0032956304209720761 -0.0014032432860271499 -0.002146078082215455 -0.0027472863492520551 -0.0018864447650100505 -0.0032775233844640084 -0.0016505395304169748 -0.0017653413815423846 -0.0014872220514172859 -0.0016953175328671931 -0.0017614973531592461 -0.001592859195733673 -0.001277640947670329 -0.0013323285843794927 -0.0015508221734004716 -0.0015499697722218654
leaf_weight=7618 74 50 75 51 50 64 56 56 75 50 64 63 72 62 72 55 54 79 70 54 77 52 55 70 63 89 51 78 72 54
leaf_count=7618 74 50 75 51 50 64 56 56 75 50 64 63 72 62 72 55 54 79 70 54 77 52 55 70 63 89 51 78 72 54
internal_value=-3.42299e-05 -0.00170753 -0.00158051 -0.00242592 -0.00233095 -0.00202148 -0.00251993 -0.00348704 -0.00293918 -0.00179694 -0.00200481 -0.00179638 -0.00155776 -0.00337461 -0.0036182 -0.00145107 -0.00180355 -0.00247654 -0.00232903 -0.00306074 -0.00155271 -0.00163229 -0.00164285 -0.00159922 -0.00170047 -0.00155251 -0.00133837 -0.00136165 -0.00155004 -0.00155004
internal_weight=9525 9451 8031 1420 1370 908 282 120 462 626 391 341 7956 238 134 235 162 224 145 104 7884 108 278 214 140 144 184 133 7744 7672
internal_count=9525 9451 8031 1420 1370 908 282 120 462 626 391 341 7956 238 134 235 162 224 145 104 7884 108 278 214 140 144 184 133 7744 7672
is_linear=0
shrinkage=0.1


Tree=6
num_leaves=33
num_cat=0
split_feature=20 19 21 9 9 0 0 7 23 23 24 11 24 11 11 21 21 21 9 20 21 0 21 23 11 20 11 19 0 20 19 0
split_gain=282.506 0.311829 0.0753227 0.02554 0.0201766 0.0185098 0.0240429 0.0319318 0.0168234 0.0152515 0.00774727 0.0170874 0.0188076 0.00292113 0.00548941 0.00240791 0.000888019 0.000747801 0.00042953 0.000387171 0.000325883 0.00091613 0.000143039 0.000140854 0.000127227 0.000121087 1.55998e-05 8.36026e-06 6.3898e-06 3.57264e-09 1.92439e-11 2.22045e-16
threshold=0.45974444065626502 0.74890959417477743 2.4961818855181268 12.500000000000002 345.50000000000006 28.500000000000004 40.500000000000007 503.55000000000007 1.2903759965457142 1.5925777944931048 0.23544711568964288 102.66208868803842 0.26841984574329708 102.13539818647745 103.18712312779617 5.837262422724339 5.402033638396504 4.2987551301570077 445.00000000000006 0.34202989454843147 0.94760828621211723 25.500000000000004 3.5577294552841656 1.2903759965457142 105.37846632710811 -0.037052686739384937 100.45382395382397 0.04736010272740581 33.500000000000007 0.30312787440949529 0.14773755775611905 61.500000000000007
decision_type=2 2 2 2 2 2 2 2 2 2 2 2 2 2 2 2 2 2 2 2 2 2 2 2 2 2 2 2 2 2 2 2
left_child=1 2 19 -4 10 8 7 -7 -6 -8 13 12 -12 17 -15 22 25 -5 -10 20 29 -22 -16 -24 -25 -13 28 -23 -19 30 31 -1
right_child=-2 -3 3 4 5 6 9 -9 18 -11 11 16 -14 14 15 -17 -18 26 -20 -21 21 27 23 24 -26 -27 -28 -29 -30 -31 -32 -33
leaf_value=-0.001395032647997141 0.1932845750252406 -0.0080755385130082506 -0.0043898831833811365 -0.001653523613802261 -0.0033181038236728419 -0.0053954770369455222 -0.0013553985314052781 -0.0023137625017813569 -0.0010300325715671417 -0.0035250210082503385 -0.0041603418482417196 -0.0015820718969085388 -0.0016925150159535546 -0.0027351553622141202 -0.0016504909148947759 -0.0022302008400272048 -0.0019594376133579127 -0.001272241219591636 -0.0014127495369928725 -0.0011548866814171726 -0.0018710526637732983 -0.0013567724212689299 -0.0013266899336415987 -0.0016372136838201966 -0.001447911345467125 -0.0013854063981750481 -0.0011830800370770996 -0.0014101536292582752 -0.0012226668920797797 -0.0013957399383394255 -0.0013949727398101931 -0.001395032647997141
leaf_weight=7397 75 73 51 54 54 80 81 58 69 54 74 56 53 53 55 56 53 52 51 66 55 71 52 56 97 71 59 50 52 72 54 221
leaf_count=7397 75 73 51 54 54 80 81 58 69 54 74 56 53 53 55 56 53 52 51 66 55 71 52 56 97 71 59 50 52 72 54 221
internal_value=-3.08069e-05 -0.00156506 -0.00151437 -0.00219347 -0.00210987 -0.00265833 -0.00317207 -0.00410026 -0.0018523 -0.00222325 -0.00183534 -0.00224228 -0.00313046 -0.00162215 -0.00179336 -0.0016354 -0.00161561 -0.001331 -0.00119269 -0.00139609 -0.0013981 -0.00153265 -0.00150729 -0.00146887 -0.0015172 -0.00147213 -0.00122415 -0.00137883 -0.00124745 -0.00139504 -0.00139503 -0.00139503
internal_weight=9525 9450 9377 1391 1340 447 273 138 174 135 893 307 127 586 369 316 180 217 120 7986 7920 176 260 205 153 127 163 121 104 7744 7672 7618
internal_count=9525 9450 9377 1391 1340 447 273 138 174 135 893 307 127 586 369 316 180 217 120 7986 7920 176 260 205 153 127 163 121 104 7744 7672 7618
is_linear=0
shrinkage=0.1


Tree=7
num_leaves=36
num_cat=0
split_feature=20 21 20 20 21 9 9 0 0 7 11 11 0 9 9 9 9 7 21 11 13 21 0 21 7 7 11 20 20 20 20 21 10 9 20
split_gain=228.83 0.135147 0.470172 0.0246294 0.0371035 0.00998431 0.0120973 0.00807741 0.0109549 0.0159481 0.00524253 0.00660702 0.00474884 0.0140525 0.00186872 0.00179119 0.00133635 0.00109471 0.000678428 0.000532566 0.000364749 0.000263965 0.000742066 0.000177298 0.000212976 0.00014362 9.28573e-05 6.67853e-06 2.89421e-09 1.73299e-11 5.21805e-14 7.50927e-14 4.63865e-15 7.56339e-16 4.44089e-16
threshold=0.45974444065626502 4.9782307740225402 0.18988570415477576 0.34202989454843147 2.4961818855181268 346.50000000000006 23.500000000000004 41.500000000000007 28.500000000000004 493.97500000000008 102.66208868803842 101.68097643097646 28.500000000000004 345.50000000000006 346.50000000000006 53.500000000000007 137.50000000000003 596.08000000000004 5.837262422724339 103.23318077803204 0.71500000000000008 0.94760828621211723 25.500000000000004 3.4944553774975748 640.94500000000016 910.20000000000016 106.19646676852561 0.037309374390576598 0.30312787440949529 0.27734503236675917 0.23207768296630185 0.76493548225696073 74.923831775700947 210.50000000000003 0.21347118175366328
decision_type=2 2 2 2 2 2 2 2 2 2 2 2 2 2 2 2 2 2 2 2 2 2 2 2 2 2 2 2 2 2 2 2 2 2 2
left_child=1 3 12 4 21 6 -6 8 -7 -10 11 17 14 15 19 -14 -17 20 -18 -3 -8 28 -23 -12 26 -26 -25 -24 29 30 34 32 33 -32 -1
right_child=-2 2 -4 -5 5 7 10 -9 9 -11 23 -13 13 -15 -16 16 18 -19 -20 -21 -22 22 27 24 25 -27 -28 -29 -30 -31 31 -33 -34 -35 -36
leaf_value=-0.0012555293738842012 0.17395612021287285 -0.0020946220632926641 -0.012054209962911511 0.00053059763288021921 -0.0031881491653621198 -0.0020030536409214382 -0.0016583372236174698 -0.0016104829974654244 -0.004734095705386538 -0.0022327871527522804 -0.0014347571917381642 -0.0029230437550443011 -0.0023531878604462334 -0.0032996689097362234 -0.0012612469640939875 -0.0012657890951636042 -0.0016389633815449018 -0.001306300166517406 -0.0021073235889454765 -0.0016918396762874281 -0.0019951374208951583 -0.0016839474558152938 -0.0012212323680729934 -0.0010876118721297155 -0.0014860817175358534 -0.0012463988158851864 -0.0012573018895636779 -0.0012689434085041286 -0.0012561659768430724 -0.0012554763395699765 -0.0012555298805236818 -0.0012555342454176684 -0.0012555306619506771 -0.0012555293738842012 -0.0012555295960944995
leaf_weight=7263 75 59 51 72 51 92 68 82 52 50 74 52 51 91 81 54 65 62 59 74 61 55 71 65 50 50 64 50 72 62 50 52 59 72 114
leaf_count=7263 75 59 51 72 51 92 68 82 52 50 74 52 51 91 81 54 65 62 59 74 61 55 71 65 50 50 64 50 72 62 50 52 59 72 114
internal_value=-2.77262e-05 -0.00140855 -0.00288069 -0.0013114 -0.00132649 -0.00194521 -0.00171526 -0.00244258 -0.0027943 -0.00350796 -0.00157769 -0.0019237 -0.00200457 -0.00224844 -0.00163991 -0.0018307 -0.001681 -0.00165163 -0.00186181 -0.00187052 -0.0018176 -0.00125829 -0.00137939 -0.00130019 -0.00125671 -0.00136624 -0.0011718 -0.00124095 -0.00125553 -0.00125553 -0.00125553 -0.00125553 -0.00125553 -0.00125553 -0.00125553
internal_weight=9525 9450 585 8865 8793 873 597 276 194 102 546 243 534 320 214 229 178 191 124 133 129 7920 176 303 229 100 129 121 7744 7672 7610 233 181 122 7377
internal_count=9525 9450 585 8865 8793 873 597 276 194 102 546 243 534 320 214 229 178 191 124 133 129 7920 176 303 229 100 129 121 7744 7672 7610 233 181 122 7377
is_linear=0
shrinkage=0.1


Tree=8
num_leaves=39
num_cat=0
split_feature=19 19 21 21 19 7 19 21 11 11 22 11 16 10 7 7 22 11 22 15 11 11 21 7 15 11 21 7 13 19 19 19 19 19 22 19 2 21
split_gain=190.393 0.0744841 0.498385 0.0390048 0.0147043 0.00225667 0.00171285 0.00157671 0.00187299 0.00200571 0.00152428 0.00103165 0.001147 0.00101669 0.000867126 0.00086068 0.000759802 0.00123972 0.00114273 0.000737881 0.00052344 0.0010711 0.000441034 0.000356744 0.000283759 0.000257352 0.000105717 9.72327e-05 3.16277e-05 3.75823e-06 7.88131e-07 3.34448e-08 5.71012e-11 8.82061e-12 1.84297e-13 6.65024e-14 1.11022e-16 2.77556e-17
threshold=1.3218387908591225 0.18378308728291415 0.82494375355334182 2.4961818855181268 0.74890959417477743 1000.0900000000001 0.11742843171629914 5.837262422724339 102.66208868803842 101.07273584905663 0.66273970777951907 107.66440476190478 0.93000000000000016 70.735643564356451 472.28500000000008 1000.0900000000001 0.71579673289931545 102.69919811320757 0.62020070464817978 0.80134862241283689 105.85241935483872 103.66323024054985 4.730728930927202 503.55000000000007 0.63037167719883458 107.0600869213665 0.94760828621211723 328.84000000000003 0.57000000000000017 0.16110091632458873 0.14425852335332076 0.13095887619502705 0.12303553277322875 0.11742843171629914 0.51164780649553088 0.11189818473200423 6.5000000000000009 0.63462948369972161
decision_type=2 2 2 2 2 2 2 2 2 2 2 2 2 2 2 2 2 2 2 2 2 2 2 2 2 2 2 2 2 2 2 2 2 2 2 2 2 2
left_child=1 3 -3 26 15 6 7 8 9 10 -5 20 -13 -12 -9 16 18 -18 -4 27 21 -10 -7 -23 -22 -19 29 -20 -28 30 31 32 33 34 -1 36 37 -36
right_child=-2 2 4 5 -6 22 -8 14 11 -11 13 12 -14 -15 -16 -17 17 25 19 -21 24 23 -24 -25 -26 -27 28 -29 -30 -31 -32 -33 -34 -35 35 -37 -38 -39
leaf_value=-0.0011299720344444117 0.15975248183350307 -0.011921617044135928 -0.0020185348468230052 -0.0013777507066224067 -9.2961733547353482e-05 -0.0011947460686329936 -0.0023089643021424614 -0.002430985133130953 -0.0012715140335081568 -0.0023828037889101188 -0.0017518756550825424 -0.0015756544443921974 -0.0021931343146466783 -0.0023049464415420187 -0.0018717838321915933 -0.0012895022020529723 -0.0022296155650110452 -0.0015159215435455993 -0.0012388304137857633 -0.0017536045339453729 -0.001497065500356257 -0.0019474862232094722 -0.0015911233924830763 -0.0016109569611707853 -0.0011601623306050897 -0.0018305929825075118 -0.001158648857782627 -0.0014266353036623961 -0.0012539820231754206 -0.0011026110646187091 -0.0011203273546037287 -0.0011280591791981587 -0.0011300799074686237 -0.0011300139646563266 -0.0011299764689196039 -0.0011299732359475456 -0.0011299764739528893 -0.0011299764728544099
leaf_weight=96 74 50 51 63 68 61 75 57 62 78 84 65 56 55 54 52 64 53 60 63 50 63 52 63 50 51 58 51 87 51 86 92 54 63 135 64 6385 729
leaf_count=96 74 50 51 63 68 61 75 57 62 78 84 65 56 55 54 52 64 53 60 63 50 63 52 63 50 51 58 51 87 51 86 92 54 63 135 64 6385 729
internal_value=-2.49536e-05 -0.00127599 -0.00239141 -0.00120533 -0.00146254 -0.0017977 -0.00185201 -0.00180917 -0.00175283 -0.00195209 -0.00178578 -0.00161641 -0.00186143 -0.00197072 -0.00215894 -0.00167183 -0.00172242 -0.00188333 -0.00160227 -0.00148026 -0.00151346 -0.00161179 -0.00137715 -0.00177922 -0.00132861 -0.00167023 -0.00113125 -0.00132512 -0.00121585 -0.00112967 -0.00112985 -0.00112995 -0.00112998 -0.00112998 -0.00112998 -0.00112998 -0.00112998 -0.00112998
internal_weight=9525 9451 563 8888 513 988 875 800 689 280 202 409 121 139 111 445 393 168 225 174 288 188 113 126 100 104 7900 111 145 7755 7704 7618 7526 7472 7409 7313 7249 864
internal_count=9525 9451 563 8888 513 988 875 800 689 280 202 409 121 139 111 445 393 168 225 174 288 188 113 126 100 104 7900 111 145 7755 7704 7618 7526 7472 7409 7313 7249 864
is_linear=0
shrinkage=0.1


Tree=9
num_leaves=36
num_cat=0
split_feature=19 19 21 21 19 9 9 0 0 9 9 10 21 17 10 0 22 21 7 9 8 22 15 22 21 21 0 19 19 19 19 19 22 19 0
split_gain=154.218 0.0603321 0.403692 0.0315939 0.0119104 0.00655735 0.00899936 0.00878902 0.0140358 0.00264754 0.00242096 0.00204066 0.00194531 0.00182328 0.00132617 0.00117106 0.00110643 0.000952278 0.000749037 0.000434203 0.000304255 0.000330786 0.000252858 0.000318057 0.000188998 8.56311e-05 0.000379916 3.04417e-06 6.38388e-07 2.70908e-08 4.62432e-11 7.13818e-12 1.54543e-13 5.38458e-14 1.11022e-16
threshold=1.3218387908591225 0.18378308728291415 0.82494375355334182 2.4961818855181268 0.74890959417477743 346.50000000000006 17.500000000000004 28.500000000000004 40.500000000000007 362.00000000000006 45.500000000000007 79.831578947368428 4.8015756894373931 1.0000000180025095e-35 77.737837837837859 29.500000000000004 0.79167471114844867 5.837262422724339 30.285000000000004 299.00000000000006 4.4500000000000011 0.71158754922774115 0.63901573688173807 0.67880615623721163 4.4780653756214965 0.94760828621211723 26.500000000000004 0.16110091632458873 0.14425852335332076 0.13095887619502705 0.12303553277322875 0.11742843171629914 0.51164780649553088 0.11189818473200423 55.500000000000007
decision_type=2 2 2 2 2 2 2 2 2 2 2 2 2 2 2 2 2 2 2 2 2 2 2 2 2 2 2 2 2 2 2 2 2 2 2
left_child=1 3 -3 25 9 6 -5 12 -9 10 -4 13 -7 16 20 -11 17 18 -8 22 21 -12 24 -24 -20 27 -27 28 29 30 31 32 -1 34 -34
right_child=-2 2 4 5 -6 7 11 8 -10 15 14 -13 -14 -15 -16 -17 -18 -19 19 -21 -22 -23 23 -25 -26 26 -28 -29 -30 -31 -32 -33 33 -35 -36
leaf_value=-0.0010169747634790839 0.14377723684584773 -0.01072945574275218 -0.0019637068975026958 -0.00273100977316426 -8.3665566460374124e-05 -0.0017308676691695315 -0.0014572732570562877 -0.0032621764664336576 -0.00156534994062635 -0.0015472053310885614 -0.0010613908416153975 -0.0019489195020869375 -0.0009354672176883586 -0.0017351876681235123 -0.0016938310405239462 -0.0021670107127699473 -0.0016578721962869167 -0.0015151897380844906 -0.0010168785356012555 -0.0013164574271067979 -0.00093534024697052498 -0.0013543008768465371 -0.0012896267496341584 -0.00097705089280174825 -0.00078110817634938841 -0.0013173829708248378 -0.00097683279529998186 -0.00099234994245218293 -0.0010082946072310904 -0.001015253243562968 -0.0010170719068911341 -0.0010170125520773351 -0.0010169788264294168 -0.0010169759145355784 -0.0010169788256952563
leaf_weight=96 74 50 54 50 68 61 51 97 98 54 83 50 62 77 50 70 50 65 68 50 62 72 51 90 68 50 95 51 86 92 54 63 6700 64 549
leaf_count=96 74 50 54 50 68 61 51 97 98 54 83 50 62 77 50 70 50 65 68 50 62 72 51 90 68 50 95 51 86 92 54 63 6700 64 549
internal_value=-2.24583e-05 -0.00114839 -0.00215227 -0.0010848 -0.00131629 -0.00161793 -0.00144045 -0.00199188 -0.00240941 -0.00150465 -0.00135305 -0.00133637 -0.00132993 -0.00128264 -0.00122954 -0.0018971 -0.00121195 -0.00116162 -0.00110083 -0.00104523 -0.00112256 -0.00119745 -0.000996277 -0.00109011 -0.000898993 -0.00101812 -0.00109426 -0.0010167 -0.00101686 -0.00101696 -0.00101698 -0.00101698 -0.00101698 -0.00101698 -0.00101698
internal_weight=9525 9451 563 8888 513 988 670 318 195 445 321 620 123 570 267 124 493 443 378 327 217 155 277 141 136 7900 145 7755 7704 7618 7526 7472 7409 7313 7249
internal_count=9525 9451 563 8888 513 988 670 318 195 445 321 620 123 570 267 124 493 443 378 327 217 155 277 141 136 7900 145 7755 7704 7618 7526 7472 7409 7313 7249
is_linear=0
shrinkage=0.1


Tree=10
num_leaves=44
num_cat=0
split_feature=20 21 20 21 9 20 9 20 20 11 11 0 23 0 7 23 21 10 0 21 21 21 22 20 22 23 0 21 0 22 21 20 20 22 20 21 20 22 20 22 20 22 11
split_gain=123.833 0.156644 0.248446 0.0331581 0.0301083 0.0755427 0.0305962 0.024247 0.00777301 0.00405951 0.00404079 0.00364162 0.00972692 0.00906455 0.0135801 0.00821191 0.00189891 0.00173453 0.00152512 0.000752136 0.00022253 0.000200344 0.000184689 0.000163148 0.000121157 0.000184463 0.000124864 7.54321e-05 0.000305806 6.61922e-06 1.22493e-06 1.25556e-08 3.07566e-09 1.96538e-09 2.54251e-10 4.54204e-10 1.37212e-11 2.57975e-12 4.69402e-13 6.99441e-15 9.99201e-16 3.32373e-15 1.73472e-18
threshold=0.45974444065626502 5.9534623038018806 0.08984289360491339 2.4961818855181268 325.50000000000006 0.16060219637769013 10.500000000000002 0.20497953871923877 0.32252229372199143 102.66208868803842 101.6958024152481 28.500000000000004 1.2903759965457142 40.500000000000007 499.72500000000008 1.560099859491894 0.71502824386304231 73.527142857142877 29.500000000000004 4.1631455648724272 4.9222858967771606 3.4944553774975748 0.65712018182273624 0.28870545277353948 0.76366064908476028 1.3442402187324409 37.500000000000007 1.1581905342641805 29.500000000000004 0.93614620745877686 0.87903720794615758 0.26868619629782231 0.2431876343103633 0.70984996868291217 0.2186362135370663 0.74741463035723466 0.20497953871923877 0.70779038674278705 0.1936398998729856 0.51164780649553088 0.1747870594109027 0.74591803577834437 104.68362149532712
decision_type=2 2 2 2 2 2 2 2 2 2 2 2 2 2 2 2 2 2 2 2 2 2 2 2 2 2 2 2 2 2 2 2 2 2 2 2 2 2 2 2 2 2 2
left_child=1 3 18 8 6 11 -5 9 23 10 17 12 -6 14 -13 -15 -10 19 -3 -8 -21 -11 -23 27 25 -24 -27 29 -29 30 31 32 34 -34 36 37 38 -36 39 -1 -41 42 -42
right_child=-2 2 -4 4 5 -7 7 -9 16 21 -12 13 -14 15 -16 -17 -18 -19 -20 20 -22 22 24 -25 -26 26 -28 28 -30 -31 -32 -33 33 -35 35 -37 -38 -39 -40 40 41 -43 -44
leaf_value=-0.00091528175398707394 0.12628822219739486 -0.0012768714795820416 -0.0098386641571528797 -0.0033600479364395142 -0.0022666428654195101 -0.005765111227519811 -0.0013392312349751593 0.0011884742282906218 -0.00046170182781768779 -0.0010242798837522666 -0.002181988874333911 -0.0034808994454303475 -0.00065819038082940546 -0.00069985833854964343 -0.0013835267918505547 -0.0023121752195840923 0.00040554426331073051 -0.001634148887491652 -0.001959193852350214 -0.00073431662586109162 -0.0010149907411167599 -0.00070507998485118157 -0.00078211556814733105 -0.00075739699129301775 -0.00078116113078746815 -0.0010743999064525033 -0.00087605891145627805 -0.0011850972906412448 -0.00088096795940494294 -0.0008828588495297092 -0.00092820910661405801 -0.00091385203184651549 -0.00091533706438812342 -0.00091613588189440114 -0.00091528068059834394 -0.00091565886326134204 -0.00091532096373795095 -0.00091531155444681651 -0.00091528822929504226 -0.00091528091604252447 -0.00091528091579675677 -0.00091527997143566603 -0.00091528092560015238
leaf_weight=97 77 50 51 55 61 50 50 51 51 75 50 66 98 83 58 51 50 63 95 57 56 75 61 65 83 77 54 51 94 63 74 61 55 70 59 50 87 50 89 6821 85 50 57
leaf_count=97 77 50 51 55 61 50 50 51 51 75 50 66 98 83 58 51 50 63 95 57 56 75 61 65 83 77 54 51 94 63 74 61 55 70 59 50 87 50 89 6821 85 50 57
internal_value=-1.90434e-05 -0.00103754 -0.0038354 -0.000978912 -0.00145306 -0.00209211 -0.00108325 -0.000916728 -0.000904143 -0.00106989 -0.00136851 -0.0016517 -0.00127527 -0.00188369 -0.00249987 -0.0013135 -3.23721e-05 -0.00118853 -0.00172391 -0.0010163 -0.000873412 -0.000875961 -0.000844178 -0.000915179 -0.000882114 -0.000925755 -0.000992641 -0.000916475 -0.000987938 -0.000915141 -0.000915405 -0.000915281 -0.000915292 -0.000915784 -0.000915284 -0.000915409 -0.000915281 -0.000915295 -0.000915281 -0.000915281 -0.000915281 -0.000915281 -0.000915281
internal_weight=9626 9549 196 9353 1274 467 807 752 8079 701 276 417 159 258 124 134 101 226 145 163 113 425 350 7978 275 192 131 7913 145 7768 7705 7631 7570 125 7445 159 7286 109 7199 7110 7013 192 142
internal_count=9626 9549 196 9353 1274 467 807 752 8079 701 276 417 159 258 124 134 101 226 145 163 113 425 350 7978 275 192 131 7913 145 7768 7705 7631 7570 125 7445 159 7286 109 7199 7110 7013 192 142
is_linear=0
shrinkage=0.1


Tree=11
num_leaves=44
num_cat=0
split_feature=20 21 20 21 9 10 9 20 20 24 24 24 9 20 7 23 21 20 21 23 21 10 22 1 21 23 8 20 15 22 21 20 21 22 20 22 20 22 20 22 20 22 22
split_gain=100.304 0.126882 0.201242 0.0268581 0.0243877 0.068265 0.0247829 0.01964 0.00629656 0.00331888 0.0058898 0.00286118 0.0020944 0.00173768 0.00128832 0.00117348 0.00066389 0.000637491 0.000481416 0.00127757 0.000277165 0.000237122 0.000180476 0.000131921 5.87403e-05 5.53128e-05 4.31248e-05 2.13128e-05 1.39459e-05 5.36695e-06 9.89629e-07 5.28136e-09 4.10418e-09 3.57019e-10 2.06068e-10 4.24712e-10 1.11267e-11 3.29191e-12 3.89355e-13 6.77236e-15 8.88178e-16 2.64025e-15 1.11022e-16
threshold=0.45974444065626502 5.9534623038018806 0.08984289360491339 2.4961818855181268 325.50000000000006 78.425446428571448 10.500000000000002 0.20497953871923877 0.34202989454843147 0.23544711568964288 0.27005931546840661 0.24749712621359485 354.50000000000006 0.12681878976993355 197.75500000000002 1.9202597069299896 3.9278993692700355 0.30312787440949529 4.6314097613113452 1.6790435978449201 5.5718732559568194 69.674242424242436 0.63083746197611767 0.35000000000000003 1.1581905342641805 1.4244729630357134 4.2500000000000009 0.27734503236675917 0.7612487619226479 0.93614620745877686 0.87903720794615758 0.2431876343103633 0.73943111346713797 0.71158754922774115 0.2186362135370663 0.73290339588332698 0.20497953871923877 0.67130071899024957 0.1936398998729856 0.51164780649553088 0.1747870594109027 0.74591803577834437 0.76704692652950845
decision_type=2 2 2 2 2 2 2 2 2 2 2 2 2 2 2 2 2 2 2 2 2 2 2 2 2 2 2 2 2 2 2 2 2 2 2 2 2 2 2 2 2 2 2
left_child=1 3 15 8 6 12 -5 9 17 16 11 -11 -6 14 -14 -3 21 24 -16 -20 22 -8 -18 -24 27 -12 -25 29 -26 30 31 34 33 -33 36 37 38 -36 39 -1 42 -42 -41
right_child=-2 2 -4 4 5 -7 7 -9 -10 10 25 -13 13 -15 18 -17 20 -19 19 -21 -22 -23 23 26 28 -27 -28 -29 -30 -31 -32 32 -34 -35 35 -37 -38 -39 -40 40 41 -43 -44
leaf_value=-0.00082375360652804381 0.11365940023649049 -0.0018584662760823354 -0.0088547983877908659 -0.0030240431631153282 -0.00097902714784513819 -0.0052265350848082802 -0.00083692736225202688 0.0010696268357409566 0.00015901535692991635 -0.0011942464816139175 -0.00077048840198236021 -0.0021083833340865871 -0.0020199659063595619 -0.0010617849035474663 -0.0016959528264123948 -0.0012878596378588835 -0.0005433916115114276 -0.00051685835316996368 -0.0010352017913114737 -0.0017201748206779094 -0.00092915109358727944 -0.0011006238354558621 -0.00083123810937085871 -0.00061062320953968803 -0.00086486192909789462 -0.00062532142630584964 -0.00073374525015242401 -0.00076524123904250915 -0.00092987655103206638 -0.00079457291978455723 -0.00083538820035755634 -0.00082378327101469042 -0.00082506070194660486 -0.0008241611700505018 -0.00082373984382841088 -0.00082410619977642513 -0.00082378883407205014 -0.00082377485744655136 -0.00082375942991020983 -0.00082375276833772664 -0.00082375277292875331 -0.00082375192828476433 -0.00082375276989487428
leaf_weight=97 77 67 51 55 78 54 60 51 66 63 52 75 73 59 94 78 69 68 53 56 55 79 79 66 97 53 50 63 50 63 74 50 53 50 58 51 87 50 89 5565 142 50 1256
leaf_count=97 77 67 51 55 78 54 60 51 66 63 52 75 73 59 94 78 69 68 53 56 55 79 79 66 97 53 50 63 50 63 74 50 53 50 58 51 87 50 89 5565 142 50 1256
internal_value=-1.7139e-05 -0.000933789 -0.00345186 -0.000881021 -0.00130775 -0.0018829 -0.000974924 -0.000825055 -0.000813728 -0.000962899 -0.00126162 -0.00169106 -0.00144572 -0.00155438 -0.00165968 -0.00155152 -0.000804407 -0.00082174 -0.00153012 -0.00138711 -0.000724933 -0.000986798 -0.000682387 -0.00073157 -0.00082435 -0.000697214 -0.000663693 -0.000823169 -0.000886976 -0.000823641 -0.00082388 -0.000823768 -0.000824349 -0.000823972 -0.000823756 -0.000823868 -0.000823753 -0.000823756 -0.000823753 -0.000823753 -0.000823753 -0.000823753 -0.000823753
internal_weight=9626 9549 196 9353 1274 467 807 752 8079 701 243 138 413 335 276 145 458 8013 203 109 319 139 264 195 7945 105 116 7798 147 7735 7672 7598 153 100 7445 159 7286 108 7199 7110 7013 192 6821
internal_count=9626 9549 196 9353 1274 467 807 752 8079 701 243 138 413 335 276 145 458 8013 203 109 319 139 264 195 7945 105 116 7798 147 7735 7672 7598 153 100 7445 159 7286 108 7199 7110 7013 192 6821
is_linear=0
shrinkage=0.1


Tree=12
num_leaves=45
num_cat=0
split_feature=19 20 21 19 24 11 24 11 11 17 19 21 19 24 21 24 8 0 0 8 23 7 20 23 19 24 20 21 0 20 22 19 21 19 19 19 20 20 22 22 0 19 19 24
split_gain=83.2692 0.382326 0.0118819 0.0121571 0.00267812 0.00483805 0.00727442 0.00225199 0.00454466 0.0039544 0.00176322 0.00188847 0.00124231 0.00113613 0.00116318 0.000802764 0.000872531 0.000653321 0.00137138 0.000553775 0.00045926 0.000421502 0.000318793 0.000286414 0.000126679 0.000105619 2.78261e-05 2.79356e-05 0.00017984 1.31876e-06 2.45155e-07 1.45842e-08 1.17082e-08 1.77879e-10 1.34846e-11 1.5915e-12 1.32469e-12 6.10623e-14 2.48137e-13 4.66294e-15 5.55112e-17 5.55112e-17 3.46945e-18 1.73472e-18
threshold=1.3218387908591225 0.34202989454843147 2.4961818855181268 0.74890959417477743 0.24031734344725694 102.66208868803842 0.26773431528732455 102.13539818647745 102.81990025740028 1.0000000180025095e-35 0.36524351724112064 5.837262422724339 0.18378308728291415 0.21910060465530182 5.5718732559568194 0.21023116012548318 3.5500000000000003 39.500000000000007 28.500000000000004 4.0500000000000007 1.1888655084768878 294.67500000000007 -0.030433824642968756 1.3785668753893858 -0.096467905299065237 0.22350498708779898 0.30312787440949529 0.94760828621211723 31.500000000000004 0.27734503236675917 0.93614620745877686 0.13931964458339582 0.86949199018542866 0.12675669834332357 0.11453757026540233 0.10670080707562858 0.23207768296630185 0.1936398998729856 0.65599925087292865 0.51164780649553088 63.500000000000007 0.086048359302885666 0.09474093633022608 0.23595988962544032
decision_type=2 2 2 2 2 2 2 2 2 2 2 2 2 2 2 2 2 2 2 2 2 2 2 2 2 2 2 2 2 2 2 2 2 2 2 2 2 2 2 2 2 2 2 2
left_child=1 2 12 4 7 6 -6 13 -9 10 11 15 26 14 20 16 -10 18 -7 -18 -4 -17 -21 -22 -25 -23 27 29 -29 30 31 32 33 34 35 37 -36 39 -39 -1 41 -41 43 -43
right_child=-2 -3 3 -5 5 17 -8 8 9 -11 -12 -13 -14 -15 -16 21 19 -19 -20 22 23 25 -24 24 -26 -27 -28 28 -30 -31 -32 -33 -34 -35 36 -37 -38 38 -40 40 -42 42 -44 -45
leaf_value=-0.00074137821793556218 0.10424370769607394 -0.0077729971061130587 -0.0010712760662978614 0.00029772406649044572 -0.0024921066963754929 -0.00090419895454405029 -0.0011311103893197414 -0.0020398156587593716 -0.0014345480927239317 -0.0018604839306367055 -0.00049799960410303393 -0.0015263593997053035 -0.00026593693278052593 -0.0011587537677131606 -0.0003128282664705363 -0.0010028345880775968 -0.00074266459410158756 -0.00083143704745452856 -0.0014616209442985045 -0.00094113563525683765 -0.00054505688133170177 -0.00076206448138691494 -0.0012931413771584631 -0.0009472905377419117 -0.00073452025584805185 -0.00055753230528139024 -0.00081646806542195528 -0.00093517950556885735 -0.00070427284614803893 -0.00075643753585547717 -0.00074769263606398349 -0.00074287050546934972 -0.00074007888457604818 -0.0007415468751963589 -0.0007413528875137369 -0.00074136395282535386 -0.0007413312982491873 -0.00074137930728574385 -0.00074137200186353018 -0.00074137751955553541 -0.00074137751944363122 -0.00074137752526439729 -0.00074137756540500503 -0.00074137755297124398
leaf_weight=97 76 79 57 64 73 93 85 51 52 55 69 68 55 77 55 55 67 85 84 53 51 50 50 51 62 51 51 52 96 59 62 65 70 62 60 88 54 94 92 6658 107 64 77 50
leaf_count=97 76 79 57 64 73 93 85 51 52 55 69 68 55 77 55 55 67 85 84 53 51 50 50 51 62 51 51 52 96 59 62 65 70 62 60 88 54 94 92 6658 107 64 77 50
internal_value=-1.54252e-05 -0.000845131 -0.000787344 -0.00104993 -0.0011118 -0.00132287 -0.00175993 -0.00102078 -0.00113542 -0.0010545 -0.000968427 -0.00104121 -0.000739566 -0.0008191 -0.000724342 -0.00095393 -0.00107609 -0.00105931 -0.00116874 -0.000966446 -0.000826754 -0.000780085 -0.00111201 -0.000741768 -0.000830549 -0.000658786 -0.00074284 -0.000742365 -0.000785402 -0.000741544 -0.00074143 -0.000741379 -0.000741366 -0.000741378 -0.000741377 -0.000741377 -0.000741343 -0.000741377 -0.000741376 -0.000741378 -0.000741378 -0.000741378 -0.000741378 -0.000741378
internal_weight=9626 9550 9471 1458 1394 420 158 974 621 570 515 446 8013 353 276 378 222 262 177 170 221 156 103 164 113 101 7958 7907 148 7759 7700 7638 7573 7503 7441 7327 114 7239 186 7053 6956 6849 191 114
internal_count=9626 9550 9471 1458 1394 420 158 974 621 570 515 446 8013 353 276 378 222 262 177 170 221 156 103 164 113 101 7958 7907 148 7759 7700 7638 7573 7503 7441 7327 114 7239 186 7053 6956 6849 191 114
is_linear=0
shrinkage=0.1


Tree=13
num_leaves=42
num_cat=0
split_feature=19 20 21 19 24 11 24 11 11 13 0 0 19 24 21 24 24 20 21 11 15 16 15 8 20 21 0 20 22 19 21 19 19 19 20 20 22 22 0 19 0
split_gain=67.448 0.309684 0.00962437 0.00984723 0.00216928 0.00391882 0.00589228 0.00182411 0.00368118 0.0015295 0.00123662 0.00125275 0.00100627 0.000920268 0.000942176 0.000628352 0.000788333 0.000587477 0.000570248 0.000644787 0.000333091 0.00031582 0.000284839 0.00018329 2.25391e-05 2.26279e-05 0.00014567 1.0682e-06 1.98578e-07 1.18131e-08 9.48351e-09 1.44065e-10 1.0923e-11 1.29013e-12 1.07312e-12 4.95715e-14 2.00322e-13 3.4972e-15 5.55112e-17 5.55112e-17 3.46945e-18
threshold=1.3218387908591225 0.34202989454843147 2.4961818855181268 0.74890959417477743 0.24031734344725694 102.66208868803842 0.26773431528732455 102.13539818647745 102.81990025740028 0.57000000000000017 40.500000000000007 28.500000000000004 0.18378308728291415 0.21910060465530182 5.5718732559568194 0.20382273937452652 0.17781670547172718 -0.11049927115000295 4.9222858967771606 106.34641223556319 0.54052519406245703 0.93000000000000016 0.73711485451042014 4.2500000000000009 0.30312787440949529 0.94760828621211723 31.500000000000004 0.27734503236675917 0.93614620745877686 0.13931964458339582 0.86949199018542866 0.12675669834332357 0.11453757026540233 0.10670080707562858 0.23207768296630185 0.1936398998729856 0.65599925087292865 0.51164780649553088 60.500000000000007 0.09474093633022608 62.500000000000007
decision_type=2 2 2 2 2 2 2 2 2 2 2 2 2 2 2 2 2 2 2 2 2 2 2 2 2 2 2 2 2 2 2 2 2 2 2 2 2 2 2 2 2
left_child=1 2 12 4 7 6 -6 13 -9 10 11 -10 24 14 20 16 -11 -7 19 -19 -4 -22 23 -17 25 27 -27 28 29 30 31 32 33 35 -34 37 -37 -1 39 -39 -40
right_child=-2 -3 3 -5 5 17 -8 8 9 15 -12 -13 -14 -15 -16 22 -18 18 -20 -21 21 -23 -24 -25 -26 26 -28 -29 -30 -31 -32 -33 34 -35 -36 36 -38 38 40 -41 -42
leaf_value=-0.00066724037751555445 0.09381933612258811 -0.0069956972892801401 -0.00056186460119995215 0.00026795166513693403 -0.0022428960302084753 -0.0012140656973665151 -0.0010179993500316735 -0.0018358340864217421 -0.0010165652738670992 -0.0007496509013639952 -0.00080331992831523136 -0.0016421005008409599 -0.00023934323001991622 -0.0010428783992553349 -0.00028154543677704749 -0.0008872796924990396 -0.0011607698853720427 -0.00078672678631345008 -0.00067407305577098459 -0.0012692495255801335 -0.00071356813520864347 -0.0010102996091330264 -0.00051324305553592875 -0.00065827541347971428 -0.00073482127969755849 -0.00084166154354953996 -0.00063384555736168595 -0.00068079378866290653 -0.00067292340250024881 -0.00066858345284484901 -0.00066607100955609763 -0.00066739218309521677 -0.00066721760279809432 -0.00066722755754281861 -0.00066719817135620996 -0.00066724137373347868 -0.00066723480982624974 -0.00066723977254931838 -0.00066723977420274372 -0.00066723981998055375 -0.00066723977215588093
leaf_weight=97 76 79 69 64 73 65 85 51 59 89 59 70 55 77 55 77 98 58 86 53 94 58 54 64 51 52 96 59 62 65 70 62 60 88 54 94 92 6628 91 74 163
leaf_count=97 76 79 69 64 73 65 85 51 59 89 59 70 55 77 55 77 98 58 86 53 94 58 54 64 51 52 96 59 62 65 70 62 60 88 54 94 92 6628 91 74 163
internal_value=-1.38826e-05 -0.000760618 -0.00070861 -0.000944933 -0.00100062 -0.00119059 -0.00158393 -0.000918702 -0.00102188 -0.000949053 -0.00118255 -0.001356 -0.00066561 -0.00073719 -0.000651907 -0.000834135 -0.000965104 -0.000953378 -0.000867364 -0.00101712 -0.000744079 -0.000826795 -0.00070854 -0.000783334 -0.000668556 -0.000668128 -0.000706862 -0.00066739 -0.000667287 -0.000667241 -0.00066723 -0.00066724 -0.000667239 -0.00066724 -0.000667208 -0.00066724 -0.000667238 -0.00066724 -0.00066724 -0.00066724 -0.00066724
internal_weight=9626 9550 9471 1458 1394 420 158 974 621 570 188 129 8013 353 276 382 187 262 197 111 221 152 195 141 7958 7907 148 7759 7700 7638 7573 7503 7441 7327 114 7239 186 7053 6956 6702 254
internal_count=9626 9550 9471 1458 1394 420 158 974 621 570 188 129 8013 353 276 382 187 262 197 111 221 152 195 141 7958 7907 148 7759 7700 7638 7573 7503 7441 7327 114 7239 186 7053 6956 6702 254
is_linear=0
shrinkage=0.1


Tree=14
num_leaves=55
num_cat=0
split_feature=19 19 21 21 24 19 21 9 9 21 0 0 7 24 11 21 21 19 11 11 2 21 19 24 21 21 7 19 21 21 21 0 11 19 19 22 19 22 21 22 22 21 19 19 21 22 19 22 19 0 11 21 22 7
split_gain=54.6329 0.0431475 0.383256 0.0114631 0.011268 0.0226897 0.0134779 0.00820075 0.00622474 0.00534255 0.00484902 0.0106411 0.00828978 0.0021127 0.00486923 0.00186265 0.00176604 0.00326445 0.00124337 0.00159858 0.00115791 0.000927702 0.000680479 0.000411484 0.000383247 0.000339431 0.000257392 0.000103749 7.53763e-05 2.2147e-05 1.83979e-05 8.74351e-05 1.08401e-05 3.13819e-06 1.39841e-07 1.36103e-07 1.14563e-08 2.39341e-08 7.17248e-09 6.23627e-10 1.08292e-11 4.35221e-12 1.83742e-14 3.85525e-14 3.42287e-14 9.03097e-15 2.33147e-15 4.16854e-15 1.11022e-16 2.77556e-17 2.77556e-17 6.93889e-18 6.07153e-18 1.73472e-18
threshold=1.3218387908591225 0.23064117337586906 3.1940795429086353 2.4961818855181268 0.12902839981235506 0.18378308728291415 0.69439542125390508 16.500000000000004 349.00000000000006 6.0299706769899339 28.500000000000004 40.500000000000007 399.96000000000004 0.23544711568964288 102.66208868803842 4.6314097613113452 4.9222858967771606 0.56255156519350014 102.13539818647745 103.51245181578416 12.500000000000002 4.730728930927202 0.16110091632458873 0.22158596485727602 5.6372294895217214 4.4780653756214965 651.46500000000003 0.14425852335332076 4.1631455648724272 4.8382532392785986 0.94760828621211723 33.500000000000007 99.0508224255763 0.13095887619502705 0.12018851741209344 0.93614620745877686 0.10670080707562858 0.67591523819308208 0.86949199018542866 0.53205591082364123 0.56344301183984824 0.70056035355854551 0.098632991819442559 0.08752710763029703 0.67438237515693822 0.67489451863830108 0.077926500167874155 0.68100700436236627 0.074731512505340575 59.500000000000007 109.59075554286804 0.70475342732388213 0.74591803577834437 891.6400000000001
decision_type=2 2 2 2 2 2 2 2 2 2 2 2 2 2 2 2 2 2 2 2 2 2 2 2 2 2 2 2 2 2 2 2 2 2 2 2 2 2 2 2 2 2 2 2 2 2 2 2 2 2 2 2 2 2
left_child=1 3 -3 4 6 22 -1 -5 13 16 15 12 -12 18 -15 -10 20 -18 25 -20 23 -13 27 -4 28 -9 -16 30 -21 -30 33 -32 -27 34 35 36 38 -38 39 -6 -41 -39 43 46 -45 -46 48 -48 49 50 -42 -52 -49 -51
right_child=-2 2 9 7 5 -7 -8 8 10 -11 11 21 -14 14 26 -17 17 -19 19 24 -22 -23 -24 -25 -26 32 -28 -29 29 -31 31 -33 -34 -35 -36 -37 37 41 -40 40 42 -43 -44 44 45 -47 47 52 -50 53 51 -53 -54 -55
leaf_value=-0.0028142852419987324 0.084437402455430285 -0.0096278307869380238 -0.00054983437593960087 -0.0021846322160141143 -0.00060085125151090326 0.0013709979234421152 -0.00057389039289334727 -0.0005597629279575565 -0.0011856151887674488 0.00030030243442062351 -0.0031087149072576456 -0.00050455267244251445 -0.0013217904549092056 -0.0015593759371361504 -0.00051121500553563237 -0.0003809749510599597 -0.0008160975650146915 0.00016768371860962362 -0.0011878406392497711 -0.00059956484660506244 -0.0012506868086450303 -0.0011078309251335949 -0.00024361300747841597 -0.00091758419166581011 -0.00083388645426192153 -0.00028420697280685439 -0.00078627599122108168 -0.00049059078757932712 -0.00042363876733967731 -0.00051600046112434939 -0.00073457712222906686 -0.00057036679332392131 -0.00021932146688306926 -0.00058213093378130471 -0.00060440599918365479 -0.00060547600816270074 -0.00060315244173740645 -0.00060047817975282677 -0.00059947935072010138 -0.0006005508877504408 -0.00060051581786685392 -0.00060051950052953686 -0.00060051714535802603 -0.00060051232821455133 -0.00060051414914721369 -0.00060051580187567375 -0.00060051485279601232 -0.00060051579296715183 -0.00060051568134716069 -0.00060051581822335727 -0.00060051581822335727 -0.00060051581822335727 -0.00060051583255139689 -0.00060051581822335727
leaf_weight=50 76 53 58 51 56 59 58 55 51 59 54 50 50 85 95 66 96 52 56 75 71 52 54 64 51 52 53 86 54 50 55 79 51 93 96 56 51 50 67 89 5486 52 98 57 51 94 71 59 66 222 345 330 65 51
leaf_count=50 76 53 58 51 56 59 58 55 51 59 54 50 50 85 95 66 96 52 56 75 71 52 54 64 51 52 53 86 54 50 55 79 51 93 96 56 51 50 67 89 5486 52 98 57 51 94 71 59 66 222 345 330 65 51
internal_value=-1.24944e-05 -0.000684556 -0.00163708 -0.000637124 -0.000596553 -0.00058275 -0.00161111 -0.000947716 -0.000884633 -0.000578306 -0.00124584 -0.00153784 -0.00224962 -0.0007123 -0.000956159 -0.000731716 -0.000730324 -0.000470445 -0.000584329 -0.00070871 -0.000929609 -0.000812106 -0.00059738 -0.000742752 -0.000592053 -0.000359184 -0.000609717 -0.000599821 -0.00052315 -0.000468043 -0.000601035 -0.000637767 -0.000252079 -0.000600388 -0.000600614 -0.000600565 -0.000600527 -0.000601384 -0.000600509 -0.000600519 -0.000600516 -0.000600499 -0.000600516 -0.000600516 -0.000600514 -0.000600515 -0.000600516 -0.000600515 -0.000600516 -0.000600516 -0.000600516 -0.000600516 -0.000600516 -0.000600516
internal_weight=9626 9550 453 9097 8046 7938 108 1051 1000 400 323 206 104 677 233 117 341 148 444 286 193 102 7879 122 230 158 148 7825 179 104 7739 134 103 7605 7512 7416 7360 153 7207 7140 7084 102 6995 6897 202 145 6695 195 6500 6434 6161 675 124 273
internal_count=9626 9550 453 9097 8046 7938 108 1051 1000 400 323 206 104 677 233 117 341 148 444 286 193 102 7879 122 230 158 148 7825 179 104 7739 134 103 7605 7512 7416 7360 153 7207 7140 7084 102 6995 6897 202 145 6695 195 6500 6434 6161 675 124 273
is_linear=0
shrinkage=0.1


Tree=15
num_leaves=52
num_cat=0
split_feature=20 19 20 21 9 9 0 23 0 7 23 19 24 11 24 11 11 21 7 10 20 21 11 19 7 24 21 24 10 24 21 0 20 19 20 22 19 21 19 19 22 22 20 22 9 20 20 20 20 20 20
split_gain=46.1664 1.01277 0.0357833 0.00707724 0.0136168 0.00567503 0.0092484 0.0115473 0.0100545 0.0159249 0.0124006 0.00234467 0.00229263 0.00622854 0.0125353 0.00207926 0.00367559 0.000714855 0.000426171 0.000398259 0.000362729 0.000261279 0.00023175 0.00016593 0.00015471 0.000122577 0.000128277 0.00011036 8.64841e-05 4.74525e-05 3.3167e-05 0.000193934 3.18281e-05 4.11573e-06 1.79757e-07 1.09317e-07 1.03557e-08 5.35519e-09 6.61393e-10 8.94985e-11 7.4416e-11 5.66155e-12 4.00874e-13 1.10356e-13 3.74531e-14 5.02376e-15 5.55112e-17 2.77556e-17 2.08167e-17 6.93889e-18 4.33681e-19
threshold=0.45974444065626502 0.89835268463717854 0.34202989454843147 2.4961818855181268 10.500000000000002 345.50000000000006 28.500000000000004 1.2903759965457142 40.500000000000007 503.55000000000007 1.6240430152715086 0.18378308728291415 0.24084713933608468 102.66208868803842 0.26841984574329708 102.13539818647745 103.0621911922664 4.1631455648724272 787.90500000000009 67.207812500000017 0.08984289360491339 5.1749223834007525 106.95759900476882 0.26226578496468028 971.72000000000014 0.12902839981235506 0.69802937021408562 0.28166380080036341 69.301515151515162 0.20432808792513005 0.94760828621211723 28.500000000000004 0.30312787440949529 0.14425852335332076 0.26121397465659274 0.93614620745877686 0.12675669834332357 0.86949199018542866 0.11742843171629914 0.10670080707562858 0.70984996868291217 0.53205591082364123 0.20497953871923877 0.56344301183984824 244.50000000000003 0.1936398998729856 0.1803360175014741 0.040459144560629788 0.1747870594109027 0.16712429306152091 0.18673303051283821
decision_type=2 2 2 2 2 2 2 2 2 2 2 2 2 2 2 2 2 2 2 2 2 2 2 2 2 2 2 2 2 2 2 2 2 2 2 2 2 2 2 2 2 2 2 2 2 2 2 2 2 2 2
left_child=1 2 3 11 -5 12 7 -7 9 -8 -10 25 15 14 -14 17 -17 -6 20 -9 21 29 27 28 -20 26 -1 -15 -19 -18 32 -32 33 34 35 36 37 38 39 41 -41 -27 43 -43 -44 46 47 -45 49 -49 -48
right_child=-2 -3 -4 4 5 6 8 19 10 -11 -12 -13 13 22 -16 16 18 23 24 -21 -22 -23 -24 -25 -26 30 -28 -29 -30 -31 31 -33 -34 -35 -36 -37 -38 -39 -40 40 -42 42 44 45 -46 -47 50 48 -50 -51 -52
leaf_value=-0.00031971474379008895 0.079196322739940817 -0.014825665091164411 0.0016803649559118589 -0.002350744573434569 -0.00053482652970854099 -0.0016952419899544627 -0.002902509474867507 -0.00015773368137161014 -3.9135247309733297e-05 -0.00063572017859448403 -0.0019881452482088278 0.0001461710415314883 -0.0024329096234093112 -0.00062536737640146852 -0.00031670575607263763 -0.0014023517915334465 -0.0003356413695969266 -0.00028732907754091316 -0.00073939922847785064 0.00020472131236365626 -0.00018308228798834432 -0.00066707566114722425 -0.00028666604401113353 1.1612133993449706e-05 -0.0005268141028728447 -0.00054043064478273486 -0.00053893824556975494 -0.00041918990178965037 -0.00011667829321595492 -0.00046052497723394483 -0.00074874942936003217 -0.00050453681308495742 -0.00061643820289256318 -0.00056392941133756385 -0.00054558624646493367 -0.00054497838330765569 -0.00054168223565363369 -0.00053954067843733358 -0.00054016195023684087 -0.00054028487453858058 -0.000540446243607081 -0.0005404607198395572 -0.00054045663273427635 -0.00054046423174440865 -0.00054046024586288982 -0.00054046335486838449 -0.0005404643015936017 -0.00054046423179256382 -0.00054046430331827322 -0.0005404642358705213 -0.00054046431872642269
leaf_weight=51 73 50 71 53 59 53 79 50 85 51 53 50 57 54 55 51 58 57 70 77 53 53 66 55 67 51 56 50 62 64 50 93 56 76 70 54 69 64 74 51 65 91 64 4652 52 65 52 1934 54 79 53
leaf_count=51 73 50 71 53 59 53 79 50 85 51 53 50 57 54 55 51 58 57 70 77 53 53 66 55 67 51 56 50 62 64 50 93 56 76 70 54 69 64 74 51 65 91 64 4652 52 65 52 1934 54 79 53
internal_value=-2.69647e-05 -0.000630712 -0.00055623 -0.000573019 -0.00077781 -0.000717356 -0.0010098 -0.000455394 -0.00138216 -0.00201323 -0.000787668 -0.000536481 -0.000576633 -0.000814695 -0.0013937 -0.000473192 -0.000607148 -0.000234025 -0.000496037 6.20225e-05 -0.000412277 -0.00048169 -0.000433231 -0.00013203 -0.000635434 -0.00054076 -0.000434449 -0.000526244 -0.000198419 -0.000401154 -0.000542206 -0.000589926 -0.000541322 -0.000540774 -0.000540542 -0.000540495 -0.000540463 -0.000540451 -0.000540459 -0.000540462 -0.000540375 -0.000540464 -0.000540464 -0.000540464 -0.000540458 -0.000540464 -0.000540464 -0.000540464 -0.000540464 -0.000540464 -0.000540464
internal_weight=9652 9579 9529 9458 1432 1379 448 180 268 130 138 8026 931 282 112 649 416 233 365 127 228 175 170 174 137 7976 107 104 119 122 7869 143 7726 7670 7594 7524 7470 7401 7337 7263 116 7147 7096 6980 116 6889 6824 6719 2067 2013 105
internal_count=9652 9579 9529 9458 1432 1379 448 180 268 130 138 8026 931 282 112 649 416 233 365 127 228 175 170 174 137 7976 107 104 119 122 7869 143 7726 7670 7594 7524 7470 7401 7337 7263 116 7147 7096 6980 116 6889 6824 6719 2067 2013 105
is_linear=0
shrinkage=0.1


Tree=16
num_leaves=48
num_cat=0
split_feature=19 20 19 21 9 9 0 23 0 7 23 17 11 11 24 11 19 21 21 21 11 21 24 21 21 9 24 24 21 0 20 19 20 22 19 21 19 19 22 22 20 22 21 20 20 21 19
split_gain=37.927 0.422069 0.0192281 0.0066934 0.00960741 0.00444492 0.00616912 0.00848698 0.00769965 0.0127964 0.00972661 0.00251299 0.00403276 0.00671813 0.00571424 0.00206569 0.00189919 0.000958778 0.000329247 0.000261485 0.000227154 0.000107484 9.92875e-05 0.000103904 6.33964e-05 4.30383e-05 3.15522e-05 2.8254e-05 2.68653e-05 0.000157086 2.57808e-05 3.33374e-06 1.45603e-07 8.85472e-08 8.38805e-09 4.33737e-09 5.3575e-10 7.24929e-11 6.02855e-11 4.5875e-12 3.2524e-13 9.07885e-14 3.66031e-14 4.16334e-15 8.32667e-17 3.42608e-17 2.77556e-17
threshold=1.3218387908591225 0.34202989454843147 0.74890959417477743 2.4961818855181268 10.500000000000002 345.50000000000006 28.500000000000004 1.2903759965457142 40.500000000000007 503.55000000000007 1.6240430152715086 1.0000000180025095e-35 102.66208868803842 101.93080357142858 0.2420055807207854 103.32397959183676 0.18378308728291415 5.837262422724339 4.1631455648724272 5.1048558361334697 103.23318077803204 5.0396571636817704 0.12902839981235506 0.69802937021408562 3.4453230294427946 230.50000000000003 0.24031734344725694 0.20382273937452652 0.94760828621211723 28.500000000000004 0.30312787440949529 0.14425852335332076 0.26121397465659274 0.93614620745877686 0.12675669834332357 0.86949199018542866 0.11742843171629914 0.10670080707562858 0.70984996868291217 0.53205591082364123 0.20497953871923877 0.56344301183984824 0.64903810647246785 0.1936398998729856 0.17713283196457549 0.68064442960029103 0.091320539353264077
decision_type=2 2 2 2 2 2 2 2 2 2 2 2 2 2 2 2 2 2 2 2 2 2 2 2 2 2 2 2 2 2 2 2 2 2 2 2 2 2 2 2 2 2 2 2 2 2 2
left_child=1 2 3 16 -5 11 7 -7 9 -8 -10 12 13 14 18 -13 22 20 -6 -9 -14 24 23 -1 -22 -20 27 -26 30 -30 31 32 33 34 35 36 37 39 -39 -24 41 -41 -42 44 46 -46 -43
right_child=-2 -3 -4 4 5 6 8 19 10 -11 -12 15 17 -15 -16 -17 -18 -19 25 -21 21 -23 28 -25 26 -27 -28 -29 29 -31 -32 -33 -34 -35 -36 -37 -38 38 -40 40 42 43 -44 -45 45 -47 -48
leaf_value=-0.00028774327708079535 0.07228299983673625 -0.0076250262702593496 0.00108955865574535 -0.0020812598839402199 -0.00049345731732990735 -0.0015257177909590164 -0.00261978612428433 0.00016109114954955517 -4.0930272423639802e-05 -0.0005721481580871577 -0.0017851732547569555 -0.00049731298757251354 -3.8357826037099587e-05 -0.0018210519169135752 -0.0013257640552285627 -0.0013522617647854182 0.00013155393535271286 -0.0006362228896993567 -0.00023984470719897808 -0.00013586326438440744 -0.00039775492821354422 -0.00016545592905724954 -0.00048638757902617549 -0.00048504440970386243 -0.00025076908350456505 -0.00012479931639973075 -0.00021754469371184574 -0.00033667670612949011 -0.00067387447599321607 -0.00045408313287802606 -0.00055479438077392319 -0.00050753646861075572 -0.00049102762115320992 -0.00049048055273791149 -0.00048751401094098887 -0.00048558664639131166 -0.00048614575376583117 -0.00048625638580643667 -0.00048640162827303778 -0.00048641462779634606 -0.0004864103859290481 -0.00048641781364754913 -0.00048641397293205523 -0.00048641701228916649 -0.00048641794430160967 -0.00048641784079863059 -0.00048641778953504146
leaf_weight=51 72 84 75 50 52 53 76 52 83 51 52 50 50 50 71 65 50 71 93 69 50 82 51 56 69 50 70 86 50 93 56 76 70 54 69 64 74 51 65 91 50 6637 66 65 54 76 57
leaf_count=51 72 84 75 50 52 53 76 52 83 51 52 50 50 50 71 65 50 71 93 69 50 82 51 56 69 50 70 86 50 93 56 76 70 54 69 64 74 51 65 91 50 6637 66 65 54 76 57
internal_value=-2.42682e-05 -0.000567705 -0.000505277 -0.000517973 -0.000720153 -0.000669554 -0.000932042 -0.000470465 -0.00123859 -0.00179751 -0.000712787 -0.000543652 -0.000480375 -0.000757554 -0.000557649 -0.000980545 -0.000482833 -0.000297134 -0.000277976 -8.24649e-06 -0.000237981 -0.00026594 -0.000486684 -0.000391004 -0.000295902 -0.000199619 -0.000273268 -0.000298434 -0.000487985 -0.000530933 -0.00048719 -0.000486697 -0.000486488 -0.000486446 -0.000486417 -0.000486406 -0.000486413 -0.000486416 -0.000486338 -0.000486417 -0.000486418 -0.000486418 -0.000486412 -0.000486418 -0.000486418 -0.000486418 -0.000486418
internal_weight=9652 9580 9496 9421 1395 1345 436 174 262 127 135 909 794 316 266 115 8026 478 195 121 407 357 7976 107 275 143 225 155 7869 143 7726 7670 7594 7524 7470 7401 7337 7263 116 7147 7096 6980 116 6889 6824 130 6694
internal_count=9652 9580 9496 9421 1395 1345 436 174 262 127 135 909 794 316 266 115 8026 478 195 121 407 357 7976 107 275 143 225 155 7869 143 7726 7670 7594 7524 7470 7401 7337 7263 116 7147 7096 6980 116 6889 6824 130 6694
is_linear=0
shrinkage=0.1


Tree=17
num_leaves=79
num_cat=0
split_feature=20 19 20 21 9 9 0 23 0 7 23 11 11 24 19 19 21 21 10 11 7 11 10 24 7 7 24 21 21 0 20 19 19 21 24 7 11 19 24 10 11 11 11 20 19 20 20 20 7 11 24 24 10 7 19 11 11 9 24 8 8 24 11 9 20 24 9 19 20 10 23 2 20 0 1 0 9 0
split_gain=31.0259 0.963426 0.0528829 0.00477078 0.00919854 0.00375959 0.00617519 0.00758919 0.00665765 0.0106006 0.00817476 0.00154634 0.00993332 0.00447593 0.00153834 0.000663126 0.00109072 0.000459818 0.000307099 0.000304098 0.000291497 0.000116353 0.000103515 9.44846e-05 9.81168e-05 9.11375e-05 8.04228e-05 8.41625e-05 2.17609e-05 0.00012724 2.10295e-05 1.24572e-06 2.36102e-08 4.11039e-09 2.58049e-09 4.05088e-09 4.83875e-09 1.27228e-09 4.4687e-10 1.16784e-09 1.27483e-09 1.37471e-09 6.58147e-10 2.37981e-10 1.17372e-11 1.13679e-11 2.05184e-12 1.74916e-13 1.03403e-13 2.92803e-13 5.73569e-14 3.38201e-13 3.77198e-14 1.69387e-14 1.59699e-14 3.44169e-15 1.16712e-14 2.42861e-15 2.3731e-15 1.98539e-15 3.6143e-15 2.37223e-15 1.2837e-15 6.10623e-16 4.71845e-16 2.08167e-16 5.77663e-16 2.77556e-17 2.25514e-17 1.47451e-17 1.30104e-17 7.80626e-18 7.15573e-18 3.46945e-18 3.46945e-18 8.67362e-19 8.67362e-19 4.33681e-19
threshold=0.45974444065626502 0.89835268463717854 0.34202989454843147 2.4961818855181268 10.500000000000002 345.50000000000006 28.500000000000004 1.2903759965457142 40.500000000000007 503.55000000000007 1.6240430152715086 102.66208868803842 102.0920353982301 0.2420055807207854 0.18378308728291415 0.36524351724112064 5.837262422724339 4.1631455648724272 67.207812500000017 103.32397959183676 640.94500000000016 100.88505402160865 69.301515151515162 0.24137898116572196 316.18000000000006 971.72000000000014 0.12902839981235506 0.69802937021408562 0.94760828621211723 28.500000000000004 0.28870545277353948 0.14425852335332076 0.13095887619502705 0.86949199018542866 0.31667120962937984 399.96000000000004 103.60925313945805 0.12018851741209344 0.2525033493257795 58.819642857142867 111.43741101091601 113.33787116503898 95.337458745874599 0.23207768296630185 0.10433556460090555 0.084804096583857111 0.18673303051283821 0.20497953871923877 1219.9000000000003 107.74077892325316 0.15758890894830874 0.15365405472113361 84.017500000000027 1264.7550000000003 0.08259108238501299 100.14347448515427 99.85328054298644 3.5000000000000004 0.20414974773457303 3.7500000000000004 4.1500000000000012 0.19738344365466673 100.7199404761905 495.00000000000006 0.18673303051283821 0.17328741207006529 403.50000000000006 0.077926500167874155 0.13771554314520601 70.735643564356451 0.2033073447574221 8.5000000000000018 0.16712429306152091 24.500000000000004 0.65000000000000013 34.500000000000007 372.50000000000006 41.500000000000007
decision_type=2 2 2 2 2 2 2 2 2 2 2 2 2 2 2 2 2 2 2 2 2 2 2 2 2 2 2 2 2 2 2 2 2 2 2 2 2 2 2 2 2 2 2 2 2 2 2 2 2 2 2 2 2 2 2 2 2 2 2 2 2 2 2 2 2 2 2 2 2 2 2 2 2 2 2 2 2 2
left_child=1 2 3 14 -5 11 7 -7 9 -8 -10 12 13 17 26 16 19 -6 -9 -13 23 22 -19 24 -21 -22 27 -1 30 -30 31 32 33 34 37 36 -36 38 43 -40 42 -42 -41 44 47 -37 54 48 50 53 51 62 55 -50 74 56 58 -57 59 71 -61 69 -28 64 65 66 75 -67 -60 -62 -55 -52 -69 -64 -44 -59 -76 -75
right_child=-2 -3 -4 4 5 6 8 18 10 -11 -12 15 -14 -15 -16 -17 -18 21 -20 20 25 -23 -24 -25 -26 -27 28 -29 29 -31 -32 -33 -34 -35 35 45 -38 -39 39 40 41 -43 46 -45 -46 -47 -48 -49 49 -51 52 -53 -54 70 -56 57 -58 63 68 60 61 -63 73 -65 -66 67 -68 72 -70 -71 -72 -73 -74 77 76 -77 -78 -79
leaf_value=-0.00025896894900749129 0.06492409653043095 -0.014361616735346618 0.0022748310801009061 -0.0019254921566484113 -0.00042970876951338877 -0.0013731460087001324 -0.0023643660288351249 -0.0001415151922410587 -3.3788671445269274e-05 -0.00051493334615895271 -0.0016162374219417853 -0.00011975456885492725 -0.0019377979870187122 -0.0010168387352838023 0.00011839854286517949 -0.0001271028487485173 -0.00077107906108722093 -0.00025320258403856621 0.00017676594644080388 -0.00042883745156077694 -0.00056100552807038186 1.8760223401141746e-05 -6.7447668358605974e-05 -0.00019388122225217033 -0.00026012600526394353 -0.00040019988715242119 -0.00043777543492615228 -0.00043653998000081629 -0.00060648703284095972 -0.0004086748186138368 -0.00048764496012915714 -0.00045226987761755783 -0.00043968705488651088 -0.00043699562048109681 -0.00043923267736457866 -0.00043777599930763247 -0.00043803711527401636 -0.00043739447303648506 -0.00043827346526086335 -0.00043809423770974667 -0.00043849729170853443 -0.00043777653070933679 -0.00043777600016908194 -0.00043760646846802793 -0.00043773320080204442 -0.0004377207038924098 -0.00043775599344440228 -0.00043777073733508587 -0.00043777386365714024 -0.0004377668695524335 -0.00043777595446617521 -0.00043776703761050519 -0.00043777383874509142 -0.00043777593690901999 -0.00043777777321355523 -0.00043777535920814863 -0.00043777449754998091 -0.00043777600007101157 -0.00043777599940587322 -0.00043777486851522283 -0.00043777594109997155 -0.00043777517007234006 -0.00043777597100273075 -0.00043777565782268841 -0.00043777568545192482 -0.00043777599979667617 -0.00043777568615041676 -0.00043777602852559559 -0.00043777593174109276 -0.00043777601167676043 -0.00043777600026775881 -0.00043777600521038114 -0.00043777608126401902 -0.00043777599970906466 -0.00043777599980039574 -0.00043777600178455418 -0.00043777600007101157 -0.00043777600306296543
leaf_weight=51 73 50 71 53 59 53 79 50 85 51 53 51 50 91 50 98 72 60 77 71 80 52 60 57 67 63 50 56 50 93 86 60 66 65 52 145 97 84 58 68 55 51 973 85 66 50 53 72 51 50 54 51 88 50 53 63 68 122 474 67 56 52 51 57 50 3047 80 51 51 64 97 71 50 116 189 94 61 62
leaf_count=51 73 50 71 53 59 53 79 50 85 51 53 51 50 91 50 98 72 60 77 71 80 52 60 57 67 63 50 56 50 93 86 60 66 65 52 145 97 84 58 68 55 51 973 85 66 50 53 72 51 50 54 51 88 50 53 63 68 122 474 67 56 52 51 57 50 3047 80 51 51 64 97 71 50 116 189 94 61 62
internal_value=-2.18414e-05 -0.000516784 -0.000444138 -0.000464549 -0.00063269 -0.000583003 -0.000821028 -0.000368008 -0.0011253 -0.00163882 -0.000641541 -0.000468464 -0.000626448 -0.000422822 -0.000434549 -0.00036333 -0.000413547 -0.000188815 5.14584e-05 -0.000347372 -0.000381716 -0.000106183 -0.000160325 -0.00030219 -0.000346927 -0.000490161 -0.000438016 -0.000351903 -0.000439186 -0.00047784 -0.000438471 -0.000437918 -0.000437804 -0.000437787 -0.000437794 -0.000438062 -0.000438454 -0.000437781 -0.000437786 -0.000437833 -0.000437816 -0.000438151 -0.000437791 -0.000437772 -0.000437775 -0.000437762 -0.000437775 -0.000437776 -0.000437776 -0.000437774 -0.000437776 -0.000437775 -0.000437776 -0.000437775 -0.000437776 -0.000437776 -0.000437776 -0.000437776 -0.000437776 -0.000437776 -0.000437775 -0.000437776 -0.000437776 -0.000437776 -0.000437776 -0.000437776 -0.000437776 -0.000437776 -0.000437776 -0.000437776 -0.000437776 -0.000437776 -0.000437776 -0.000437776 -0.000437776 -0.000437776 -0.000437776 -0.000437776
internal_weight=9652 9579 9529 9458 1432 1379 448 180 268 130 138 931 372 322 8026 559 461 231 127 389 338 172 120 195 138 143 7976 107 7869 143 7726 7640 7580 7514 7449 344 149 7105 7021 1561 1503 106 1397 5460 5375 195 1329 5309 5237 248 4989 330 4659 198 1276 4571 957 3614 889 364 239 172 279 3551 3494 3444 296 3148 525 120 147 125 101 229 1223 216 250 178
internal_count=9652 9579 9529 9458 1432 1379 448 180 268 130 138 931 372 322 8026 559 461 231 127 389 338 172 120 195 138 143 7976 107 7869 143 7726 7640 7580 7514 7449 344 149 7105 7021 1561 1503 106 1397 5460 5375 195 1329 5309 5237 248 4989 330 4659 198 1276 4571 957 3614 889 364 239 172 279 3551 3494 3444 296 3148 525 120 147 125 101 229 1223 216 250 178
is_linear=0
shrinkage=0.1


Tree=18
num_leaves=83
num_cat=0
split_feature=19 20 19 21 9 9 0 23 0 7 23 17 11 11 24 11 19 21 21 21 11 21 10 24 21 21 10 21 0 20 7 22 23 20 23 21 21 19 22 19 20 19 19 0 24 24 11 10 11 11 24 22 24 24 10 20 20 22 7 24 7 19 20 24 24 20 10 7 15 9 11 11 11 11 11 19 19 9 0 11 20 11
split_gain=25.5544 0.42983 0.0344441 0.00444346 0.00623081 0.00291615 0.00399402 0.00551832 0.00504932 0.00838905 0.00637023 0.00196466 0.00284272 0.00421923 0.00386149 0.00173418 0.00124606 0.000632206 0.000210344 0.000206632 0.000148597 8.40269e-05 6.84418e-05 6.51425e-05 6.81716e-05 5.16376e-05 2.59833e-05 1.80658e-05 4.14861e-05 1.75898e-05 1.74663e-05 8.25513e-06 2.24666e-06 1.4873e-06 1.41942e-06 3.41944e-06 2.26758e-06 4.38383e-07 6.5887e-08 3.42253e-09 1.58973e-09 2.2791e-10 3.13377e-11 2.7723e-11 1.64872e-11 3.9366e-12 7.71975e-12 7.79985e-12 7.27412e-12 2.77297e-12 2.50949e-12 2.15704e-12 3.50654e-13 2.39003e-13 9.67815e-13 1.04444e-13 1.28772e-13 4.10366e-14 1.02522e-14 1.48492e-15 1.06859e-15 9.71445e-16 4.16334e-16 3.05311e-16 8.71699e-16 2.55004e-16 2.35922e-16 2.77556e-17 3.25261e-17 1.38778e-17 1.38778e-17 1.73472e-17 5.0307e-17 3.33934e-17 9.97466e-18 8.67362e-18 7.37257e-18 4.77049e-18 1.73472e-18 1.73472e-18 4.33681e-19 2.1684e-19
threshold=1.3218387908591225 0.34202989454843147 0.74890959417477743 2.4961818855181268 10.500000000000002 345.50000000000006 28.500000000000004 1.2903759965457142 40.500000000000007 503.55000000000007 1.6240430152715086 1.0000000180025095e-35 102.66208868803842 101.93080357142858 0.2420055807207854 103.32397959183676 0.18378308728291415 5.837262422724339 4.2987551301570077 5.1048558361334697 103.23318077803204 5.0396571636817704 69.301515151515162 0.12902839981235506 0.69802937021408562 3.4453230294427946 70.702970297029722 1.1581905342641805 35.500000000000007 0.30312787440949529 451.87000000000006 0.71079539008435022 0.36363672195377533 0.27734503236675917 0.32588018723721413 0.80675199177809576 0.86949199018542866 0.13931964458339582 0.93614620745877686 0.12675669834332357 0.2501814918357293 0.11742843171629914 0.10670080707562858 36.500000000000007 0.35317635749204362 0.2590632875926539 111.43741101091601 59.189222689075642 113.33787116503898 95.624265491453016 0.3379285651366235 0.54397222705125758 0.32460262900907949 0.2525033493257795 66.503157894736859 0.2186362135370663 0.20152316041795409 0.56344301183984824 20.91 0.31416100486335558 1525.3000000000004 0.093182811708027433 0.18355375902280466 0.15758890894830874 0.15115742362493251 0.16060219637769013 84.371250000000018 1244.1350000000002 0.49657865246731442 10.500000000000002 100.9878030751035 99.556930693069333 100.14347448515427 99.85328054298644 103.11752946127947 0.06790601392509861 0.035084872715812593 4.5000000000000009 55.500000000000007 94.25875000000002 -0.099955990820897858 105.53410852713179
decision_type=2 2 2 2 2 2 2 2 2 2 2 2 2 2 2 2 2 2 2 2 2 2 2 2 2 2 2 2 2 2 2 2 2 2 2 2 2 2 2 2 2 2 2 2 2 2 2 2 2 2 2 2 2 2 2 2 2 2 2 2 2 2 2 2 2 2 2 2 2 2 2 2 2 2 2 2 2 2 2 2 2 2
left_child=1 2 3 16 -5 11 7 -7 9 -8 -10 12 13 14 18 -13 23 20 -6 -9 -14 25 -20 24 -1 -22 31 29 -29 32 -28 -27 33 34 36 43 37 38 39 40 41 42 44 -36 45 51 47 -47 -48 -49 52 -25 58 55 -55 56 57 -53 -51 65 61 62 63 64 74 75 67 69 -69 77 71 79 73 -73 -59 78 80 -65 -60 -71 -56 -79
right_child=-2 -3 -4 4 5 6 8 19 10 -11 -12 15 17 -15 -16 -17 -18 -19 22 -21 21 -23 -24 27 -26 26 30 28 -30 -31 -32 -33 -34 -35 35 -37 -38 -39 -40 -41 -42 -43 -44 -45 -46 46 48 49 -50 50 -52 53 -54 54 76 -57 -58 60 59 -61 -62 -63 -64 66 -66 -67 -68 68 -70 70 -72 72 -74 -75 -76 -77 -78 81 -80 -81 -82 -83
leaf_value=-0.00023307205707419153 0.05933312185936504 -0.0075876397424421843 0.0017318104119428126 -0.0016805846784263849 -0.00039379910033728396 -0.0012358314129260351 -0.0021213709241955691 0.00013832286427067141 -3.345837762333167e-05 -0.00046344001015063887 -0.0014450322089907368 -0.00038526796344376635 -2.2443710652623853e-05 -0.0014613057989627124 -0.0010915037744498605 -0.0011686148576868268 0.00010655868868343533 -0.00050728380791580595 -0.00023492412119264993 -0.00012565394730620978 -0.00032492886338150132 -0.00011766873813917855 -9.45798522921645e-05 -0.0003939820273992527 -0.00039288598719784728 -0.00021915962130579457 -0.00013535179346217774 -0.00049538610661069727 -0.00037006478570401669 -0.00045055046295081936 -0.00021320951265592803 -0.00027477241497503465 -0.00041543079772964119 -0.00041025733951021706 -0.000393969910564246 -0.00036393592014957119 -0.00041243660380132499 -0.00040267637330975575 -0.00039756853455820917 -0.00039471301363047326 -0.00039348126709705497 -0.00039378929607294228 -0.00039393965465327104 -0.00039406403004392689 -0.00039394767684996997 -0.00039395630592480306 -0.00039394362447936032 -0.00039397407007137579 -0.000393995076417923 -0.00039399713200206557 -0.00039397872816253864 -0.00039399563549802856 -0.00039399066759694012 -0.00039398325695041221 -0.00039399843404276506 -0.00039400296937674284 -0.00039399360788853045 -0.00039399848252102948 -0.00039399843662977222 -0.00039399895972261822 -0.00039399889314414139 -0.00039399882940494501 -0.00039399818092453903 -0.00039399847580445194 -0.00039399884000130289 -0.00039399866067435388 -0.00039399862289428715 -0.00039399843921677938 -0.00039399854319456681 -0.00039399844904740658 -0.000393998437845598 -0.00039399847312754881 -0.00039399843834649582 -0.00039399857719049413 -0.00039399843721550968 -0.00039399839633216078 -0.00039399839099496601 -0.00039399844629444043 -0.00039399843662977222 -0.00039399844042956825 -0.00039399843569844965 -0.00039399843750837843
leaf_weight=51 72 84 75 50 56 53 76 52 83 51 52 50 50 50 71 65 50 71 69 69 50 82 70 83 56 51 50 56 50 56 68 56 50 57 81 53 68 59 52 66 61 54 99 51 69 52 61 56 50 60 72 52 62 53 54 50 56 69 781 60 56 69 57 63 77 53 73 72 52 75 3064 74 217 54 159 52 50 53 68 625 100 53
leaf_count=51 72 84 75 50 56 53 76 52 83 51 52 50 50 50 71 65 50 71 69 69 50 82 70 83 56 51 50 56 50 56 68 56 50 57 81 53 68 59 52 66 61 54 99 51 69 52 61 56 50 60 72 52 62 53 54 50 56 69 781 60 56 69 57 63 77 53 73 72 52 75 3064 74 217 54 159 52 50 53 68 625 100 53
internal_value=-1.96573e-05 -0.000465732 -0.000402733 -0.000419726 -0.000584457 -0.000543709 -0.000756318 -0.000384922 -0.00100297 -0.00145559 -0.000577176 -0.000441731 -0.000385781 -0.000618497 -0.000460075 -0.000828029 -0.000391094 -0.000231935 -0.00023017 -1.22094e-05 -0.000183901 -0.000206514 -0.000164247 -0.000394214 -0.000316713 -0.000233006 -0.000212579 -0.000395268 -0.000436272 -0.000394708 -0.000180219 -0.000248265 -0.000394302 -0.000394164 -0.000394044 -0.000385392 -0.000394259 -0.000394091 -0.000394022 -0.000393996 -0.00039399 -0.000393994 -0.000393996 -0.000394006 -0.000393996 -0.000393997 -0.000393992 -0.000393994 -0.000393967 -0.000393996 -0.000393997 -0.000393998 -0.000393998 -0.000393998 -0.000393995 -0.000393998 -0.000393998 -0.000393998 -0.000393998 -0.000393998 -0.000393998 -0.000393998 -0.000393998 -0.000393998 -0.000393999 -0.000393998 -0.000393998 -0.000393998 -0.000393998 -0.000393998 -0.000393998 -0.000393998 -0.000393998 -0.000393999 -0.000393998 -0.000393998 -0.000393998 -0.000393998 -0.000393998 -0.000393998 -0.000393998 -0.000393998
internal_weight=9652 9580 9496 9421 1395 1345 436 174 262 127 135 909 794 316 266 115 8026 478 195 121 407 357 139 7976 107 275 225 7869 106 7763 118 107 7707 7657 7600 185 7415 7347 7288 7236 7170 7109 7055 132 6956 6887 1427 1316 111 1264 1208 5460 1136 5377 257 5120 5070 5014 1074 1014 4962 4906 4837 4780 305 954 4475 4402 124 4278 4109 1045 345 128 228 901 204 169 849 700 154 106
internal_count=9652 9580 9496 9421 1395 1345 436 174 262 127 135 909 794 316 266 115 8026 478 195 121 407 357 139 7976 107 275 225 7869 106 7763 118 107 7707 7657 7600 185 7415 7347 7288 7236 7170 7109 7055 132 6956 6887 1427 1316 111 1264 1208 5460 1136 5377 257 5120 5070 5014 1074 1014 4962 4906 4837 4780 305 954 4475 4402 124 4278 4109 1045 345 128 228 901 204 169 849 700 154 106
is_linear=0
shrinkage=0.1


Tree=19
num_leaves=128
num_cat=0
split_feature=20 19 20 21 0 17 19 19 11 7 0 20 7 16 10 19 11 7 21 11 21 0 0 7 11 8 21 22 21 0 20 22 19 22 22 10 19 22 21 19 19 21 21 19 2 21 10 21 19 20 21 20 11 15 0 0 21 21 10 15 7 22 7 11 11 11 7 10 16 19 11 11 19 11 11 22 22 10 10 20 10 7 11 10 19 11 10 22 22 22 2 7 0 7 7 15 22 11 0 21 15 11 22 19 19 10 21 21 11 8 8 15 7 0 21 11 11 7 19 11 11 11 10 10 19 21 10
split_gain=20.8569 0.900944 0.071401 0.00330734 0.00123647 0.00101414 0.00100999 0.0010093 0.000998424 0.000992546 0.00180448 0.000729592 0.000630265 0.000433534 0.000398996 0.000303373 0.000340501 0.000284313 0.000269334 0.000253655 0.000234397 0.000212413 0.000209304 0.000159615 0.000123639 0.000161518 0.000101556 2.47157e-05 1.56228e-05 9.43721e-05 1.45673e-05 5.20209e-06 1.94141e-06 3.99335e-07 1.60321e-06 2.96684e-07 1.57172e-07 5.24695e-08 2.36869e-08 2.56196e-09 9.69575e-10 9.62863e-10 3.38227e-10 6.21708e-10 6.15023e-10 5.59639e-10 1.54099e-10 1.2499e-10 7.20473e-11 1.10483e-10 6.74945e-11 6.38544e-11 1.11622e-10 2.24699e-11 1.72792e-11 9.10239e-11 1.12716e-11 9.96718e-11 7.89937e-12 7.38763e-12 2.46963e-11 3.51439e-12 5.3117e-12 1.07005e-11 1.00932e-12 9.34923e-13 8.93824e-13 8.78915e-13 8.80969e-13 7.39421e-13 7.29701e-13 1.40781e-12 6.46283e-13 4.17407e-13 3.38852e-13 3.3171e-13 2.04857e-13 2.04291e-13 2.00252e-13 9.1073e-14 4.37636e-14 9.81112e-14 1.5518e-13 4.17305e-14 2.83037e-14 2.5938e-14 1.96262e-14 1.882e-14 1.51359e-14 6.62881e-15 5.22672e-15 9.61167e-15 3.5319e-15 2.36096e-15 2.33147e-15 9.23567e-15 1.10133e-14 2.47022e-14 1.45196e-15 1.29822e-15 9.4369e-16 9.09862e-16 7.84095e-16 1.12063e-15 7.05165e-16 6.38378e-16 6.97359e-16 3.67328e-16 3.60822e-16 4.83988e-16 6.04551e-16 2.85362e-16 1.84314e-16 1.61763e-16 1.05818e-16 1.00614e-16 1.23165e-16 9.2374e-17 8.50015e-17 2.10769e-16 7.45931e-17 7.97973e-17 4.51028e-17 1.14925e-16 4.25007e-17 4.03323e-17 3.62124e-17
threshold=0.45974444065626502 0.89835268463717854 0.34202989454843147 2.4961818855181268 28.500000000000004 1.0000000180025095e-35 0.50478219664530599 0.18378308728291415 103.51245181578416 424.2050000000001 40.500000000000007 0.11865026491782116 268.21500000000009 0.91000000000000014 64.419565217391309 -0.0050817569634744137 102.69919811320757 484.63000000000005 3.9278993692700355 102.7636684303351 4.7618701818539604 25.500000000000004 22.500000000000004 801.34500000000014 102.15881962864724 4.1500000000000012 4.6763864841143592 0.44698401242086389 0.94760828621211723 28.500000000000004 0.30312787440949529 0.53205591082364123 0.14773755775611905 0.6070746988968504 0.60381290813295363 61.603409090909103 0.13095887619502705 0.93614620745877686 0.86949199018542866 0.12018851741209344 0.058896838267130443 0.84344131055914862 0.80675199177809576 0.022633863517712582 11.500000000000002 0.82186902356118774 70.722277227722785 0.79410427874271705 0.11453757026540233 0.23207768296630185 0.75871660034879118 -0.18559240558407183 102.88009868421054 0.94407024233460668 26.500000000000004 23.500000000000004 0.73210951198214935 0.73339624108868229 81.22456896551725 0.48682990723654346 125.97500000000001 0.79878896888282303 294.67500000000007 102.81990025740028 95.337458745874599 108.53227424749166 451.87000000000006 57.431097560975616 0.93000000000000016 0.076207971283284756 111.95082226438964 112.59098574692636 0.062637065306002118 107.74077892325316 110.37228386500233 0.78254641911366429 0.72004221452669703 60.91551724137932 67.941752577319605 0.20497953871923877 80.522173913043488 328.84000000000003 104.46816404514352 58.819642857142867 0.091320539353264077 99.628793225123516 63.015000000000008 0.56344301183984824 0.85385135766758569 0.72597798383677237 12.500000000000002 399.96000000000004 36.500000000000007 542.22500000000014 350.31000000000006 0.63305930045422765 0.68716681528954449 104.35963079066529 54.500000000000007 0.78266681484739509 0.47580731443570629 105.0108076563959 0.65599925087292865 0.063801686231907975 0.03699372747205374 68.613775510204093 0.74626986499092629 0.67215777185558345 98.358059243114738 4.7500000000000009 4.8500000000000005 0.85982741176971322 930.24000000000012 39.500000000000007 0.70918451689950224 102.12784237726099 101.38477573318001 614.31500000000017 -0.011864615466938249 103.42945874001775 105.53410852713179 105.98185800479381 69.301515151515162 67.576562500000023 -0.014179063412686252 0.75226806836452464 82.617796610169506
decision_type=2 2 2 2 2 2 2 2 2 2 2 2 2 2 2 2 2 2 2 2 2 2 2 2 2 2 2 2 2 2 2 2 2 2 2 2 2 2 2 2 2 2 2 2 2 2 2 2 2 2 2 2 2 2 2 2 2 2 2 2 2 2 2 2 2 2 2 2 2 2 2 2 2 2 2 2 2 2 2 2 2 2 2 2 2 2 2 2 2 2 2 2 2 2 2 2 2 2 2 2 2 2 2 2 2 2 2 2 2 2 2 2 2 2 2 2 2 2 2 2 2 2 2 2 2 2 2
left_child=1 2 3 7 6 9 17 27 -7 10 12 14 13 -6 -11 16 -16 18 -5 -12 -21 22 -19 -17 -20 -26 -18 -1 30 -30 31 -29 33 34 35 -33 37 38 39 41 47 42 48 44 45 -44 -45 87 49 50 56 52 -52 54 55 78 61 -58 69 60 76 64 63 -63 66 86 -35 68 -66 74 79 -72 75 -65 77 85 -56 -59 -53 80 83 82 -82 -69 94 -61 -64 -37 93 92 98 -92 -87 -88 95 120 -97 -98 105 -94 -96 126 104 108 114 106 -79 -105 -104 115 -111 113 125 -89 -102 116 -110 -112 -117 -120 122 -122 123 124 -85 -107 -83
right_child=-2 -3 -4 4 5 8 -8 -9 -10 11 19 -13 -14 -15 15 23 26 21 24 20 -22 -23 -24 -25 25 -27 -28 28 29 -31 -32 32 -34 36 -36 40 -38 -39 -40 -41 -42 -43 43 46 -46 -47 -48 -49 -50 -51 51 53 -54 -55 59 -57 57 58 -60 72 -62 62 65 73 67 -67 -68 70 -70 -71 71 -73 -74 -75 -76 -77 -78 90 -80 -81 81 101 -84 84 -86 89 88 111 -90 -91 91 -93 99 -95 100 96 97 -99 -100 -101 102 -103 103 107 -106 112 -108 -109 109 110 117 -113 -114 -115 -116 118 -118 -119 119 -121 121 -123 -124 -125 -126 -127 -128
leaf_value=-0.00029138315957589225 0.053231750796102498 -0.013811859716137407 0.0028061119157453658 -0.00054406597441508588 -0.00088870816842022676 -0.00052445447188802067 1.0389646740804892e-05 9.590281930286438e-05 -0.0011168743614248481 -0.00071391521613109303 -0.00056752919452624211 -0.0001406901373400984 -0.0011576032910972642 -0.0005473961900133872 -0.00073117200377704908 -0.00021395718983967528 -0.00033217039027786917 -0.00048994168141354368 -0.00018926411814530956 -0.00017768505132670386 -0.0004727824928235542 -0.00035927099106002378 -0.00072614217288871933 -0.00045110055515953506 -0.00049157481530439295 -0.00023989979755938029 -0.00052434088212480266 -0.0003280994792779287 -0.00049891746159175915 -0.00032887630761561405 -0.0004054954113338941 -0.0003483116487576359 -0.00037363752424014068 -0.00035458016509730969 -0.00033717114693270281 -0.0003545966874357433 -0.00035867411813039025 -0.0003577337182952829 -0.00035252689059624186 -0.00035405295831418933 -0.00035500739739897355 -0.00035493557890211897 -0.00035511369517605219 -0.00035461437214037473 -0.00035452291843268957 -0.00035471926487327834 -0.00035437481291592123 -0.00035443203478102009 -0.00035470588844410092 -0.00035444769754328515 -0.00035459422734657338 -0.00035459141992032531 -0.00035438396316021684 -0.00035451138919254522 -0.00035459845299449041 -0.0003544478400225013 -0.00035446495211754857 -0.00035459222188884663 -0.00035455534700304272 -0.00035459567513316869 -0.0003545110221020878 -0.00035453607173015678 -0.00035459748693168736 -0.00035459616995086116 -0.0003545803977830107 -0.00035458432291360467 -0.00035459721483839827 -0.00035459573344126635 -0.00035459755565084164 -0.00035458492930047215 -0.00035457777672027259 -0.00035459857252943849 -0.00035458479923280805 -0.00035458470085779066 -0.00035459005581688579 -0.0003545890942824861 -0.00035459002107381821 -0.00035459910942262963 -0.00035459928229734624 -0.00035459505277685827 -0.00035459859063848855 -0.00035459855789667929 -0.00035459089878143047 -0.00035459858398618447 -0.00035460088703850352 -0.00035459887236356737 -0.00035459857308379718 -0.00035459859428381684 -0.00035460083614247785 -0.00035459714429453022 -0.00035459692909510114 -0.00035459881877167185 -0.00035459766117855907 -0.00035459945733048792 -0.0003545990586280823 -0.00035459857802682868 -0.00035459856360009121 -0.00035459562336569129 -0.00035459819642425167 -0.0003545983748223919 -0.00035459861440887287 -0.00035459911587702882 -0.0003545988369215694 -0.00035459913441070147 -0.00035459825137097923 -0.00035459859290429014 -0.00035459869030914082 -0.00035459878106069358 -0.00035459862029144789 -0.00035459904626397224 -0.00035459857899695636 -0.00035459880132739454 -0.00035459883371368053 -0.00035459843162574211 -0.00035459845280274752 -0.00035459861612847845 -0.00035459880018606782 -0.00035459875613085782 -0.00035459838849915702 -0.00035459858651794621 -0.00035459844768047334 -0.00035459858466454445 -0.00035459860028096976 -0.00035459878854453568 -0.00035459867054686963 -0.00035459869680926206 -0.00035459867166355254
leaf_weight=61 73 50 71 60 98 50 56 50 66 68 81 69 53 60 56 64 55 95 65 51 57 58 62 51 51 51 55 75 50 94 56 87 53 62 65 62 96 53 56 87 60 84 70 58 57 74 50 51 53 55 51 50 50 53 68 58 65 56 50 50 50 51 52 62 57 51 61 51 63 52 51 90 55 65 59 52 50 87 92 80 54 64 51 126 54 95 63 198 71 50 51 57 50 58 55 120 62 53 51 52 215 51 90 62 84 149 73 56 159 58 70 51 50 88 50 422 50 51 66 291 50 304 396 51 103 50 50
leaf_count=61 73 50 71 60 98 50 56 50 66 68 81 69 53 60 56 64 55 95 65 51 57 58 62 51 51 51 55 75 50 94 56 87 53 62 65 62 96 53 56 87 60 84 70 58 57 74 50 51 53 55 51 50 50 53 68 58 65 56 50 50 50 51 52 62 57 51 61 51 63 52 51 90 55 65 59 52 50 87 92 80 54 64 51 126 54 95 63 198 71 50 51 57 50 58 55 120 62 53 51 52 215 51 90 62 84 149 73 56 159 58 70 51 50 88 50 422 50 51 66 291 50 304 396 51 103 50 50
internal_value=-1.76915e-05 -0.000423497 -0.000353246 -0.000376963 -0.00051696 -0.000584812 -0.000389704 -0.000351985 -0.000861521 -0.000545572 -0.000658176 -0.000437816 -0.000859195 -0.000759096 -0.00049656 -0.000443961 -0.000530444 -0.000440394 -0.000362341 -0.000433759 -0.000333431 -0.000522805 -0.000583218 -0.000319125 -0.00029705 -0.000365737 -0.000428256 -0.000354793 -0.000355281 -0.000387918 -0.000354677 -0.000354308 -0.000354565 -0.000354432 -0.000352085 -0.000353709 -0.000354656 -0.0003546 -0.000354575 -0.000354592 -0.00035463 -0.000354599 -0.000354595 -0.000354697 -0.000354801 -0.000354911 -0.000354503 -0.000354579 -0.00035459 -0.000354589 -0.00035459 -0.000354565 -0.00035449 -0.000354574 -0.000354579 -0.000354553 -0.000354594 -0.000354584 -0.000354594 -0.000354588 -0.00035457 -0.000354597 -0.000354588 -0.000354575 -0.000354598 -0.000354597 -0.000354589 -0.000354598 -0.000354589 -0.000354596 -0.000354598 -0.000354591 -0.000354595 -0.00035459 -0.000354597 -0.000354596 -0.000354595 -0.000354598 -0.000354597 -0.000354598 -0.000354598 -0.000354597 -0.000354595 -0.000354599 -0.000354599 -0.000354598 -0.000354599 -0.000354598 -0.0003546 -0.000354598 -0.000354599 -0.000354598 -0.000354598 -0.000354599 -0.000354599 -0.000354598 -0.000354598 -0.000354597 -0.000354599 -0.000354598 -0.000354599 -0.000354599 -0.000354599 -0.000354599 -0.000354599 -0.000354599 -0.000354599 -0.000354599 -0.000354599 -0.000354599 -0.000354599 -0.000354599 -0.000354599 -0.000354599 -0.000354599 -0.000354599 -0.000354599 -0.000354599 -0.000354599 -0.000354599 -0.000354599 -0.000354599 -0.000354599 -0.000354599 -0.000354599 -0.000354599 -0.000354599
internal_weight=9652 9579 9529 9458 1432 934 498 8026 116 818 400 418 211 158 349 281 166 442 227 189 108 215 157 115 167 102 110 7976 7915 144 7771 7715 7640 7587 662 597 6925 6829 6776 6720 510 6633 6549 309 201 144 108 450 6240 6187 6132 926 101 825 772 200 5206 850 785 572 168 4356 473 178 3883 295 123 3760 120 735 3640 141 404 127 683 349 118 624 142 3499 3419 270 105 3149 3098 297 244 399 192 247 568 108 197 121 3044 1265 235 115 460 102 1779 165 1724 1375 349 409 160 118 1257 1167 179 337 249 286 265 988 209 121 779 357 1030 354 676 280 229 199 114
internal_count=9652 9579 9529 9458 1432 934 498 8026 116 818 400 418 211 158 349 281 166 442 227 189 108 215 157 115 167 102 110 7976 7915 144 7771 7715 7640 7587 662 597 6925 6829 6776 6720 510 6633 6549 309 201 144 108 450 6240 6187 6132 926 101 825 772 200 5206 850 785 572 168 4356 473 178 3883 295 123 3760 120 735 3640 141 404 127 683 349 118 624 142 3499 3419 270 105 3149 3098 297 244 399 192 247 568 108 197 121 3044 1265 235 115 460 102 1779 165 1724 1375 349 409 160 118 1257 1167 179 337 249 286 265 988 209 121 779 357 1030 354 676 280 229 199 114
is_linear=0
shrinkage=0.1


Tree=20
num_leaves=128
num_cat=0
split_feature=20 19 20 21 19 21 17 11 11 11 24 24 21 19 10 21 16 7 0 0 24 15 16 21 11 24 21 20 0 21 21 0 19 20 21 19 21 10 15 24 24 7 24 7 11 21 24 24 19 10 15 11 11 10 15 24 11 11 7 21 11 24 21 24 10 10 21 20 10 21 21 0 21 24 0 11 15 7 15 7 21 10 15 20 11 15 7 24 11 24 2 7 19 20 24 0 11 2 19 11 11 20 24 24 19 20 21 15 21 24 21 21 21 21 21 7 19 11 10 20 10 24 7 7 24 11 11
split_gain=22.2531 0.48296 0.0508477 0.00244438 0.000868531 0.00145329 0.000640737 0.000987347 0.000814828 0.00378767 0.000928788 0.00323275 0.000608024 0.000471012 0.00045959 0.000391711 0.000374099 0.000457945 0.000312768 0.000582483 0.000259477 0.000257801 0.0001337 0.000108811 7.80411e-05 3.77525e-05 4.57093e-05 1.21546e-05 5.37756e-06 0.000145371 3.69738e-05 1.7307e-05 3.09638e-07 2.42918e-08 1.77423e-08 1.56045e-09 1.43412e-09 1.33223e-09 1.87939e-09 8.32328e-10 2.31477e-09 1.59883e-09 8.26087e-10 1.76581e-09 7.48459e-10 6.62136e-10 5.42175e-10 5.81867e-10 4.02435e-10 3.90034e-10 1.0979e-09 3.87964e-10 2.63998e-10 4.97987e-10 1.84232e-10 1.77256e-10 1.40139e-10 3.69079e-10 3.53739e-10 1.34158e-10 9.41223e-11 9.27309e-11 4.48206e-10 7.64012e-11 7.2339e-11 9.56899e-11 6.86607e-11 6.27908e-11 4.5154e-11 4.41493e-11 3.39648e-11 3.3591e-11 2.93036e-11 9.35955e-11 6.59722e-11 4.77813e-11 4.66706e-11 2.78512e-11 2.38873e-11 2.33593e-11 2.25515e-11 3.90145e-11 2.21848e-11 2.03442e-11 1.76383e-11 1.75462e-11 1.08739e-11 1.08097e-11 9.88168e-12 6.26335e-12 5.41164e-12 2.04638e-11 4.39012e-12 2.41249e-12 1.82416e-12 1.76444e-12 4.12101e-13 3.86483e-13 6.17836e-13 1.67799e-13 1.63419e-13 1.4108e-13 8.26572e-14 6.1836e-14 3.17003e-14 6.33452e-14 2.94059e-14 2.41918e-14 2.39908e-14 1.5675e-14 1.77185e-14 9.28996e-14 1.52057e-14 1.50075e-14 1.43952e-14 1.37134e-14 1.34398e-14 6.402e-15 4.57121e-15 3.67501e-15 1.38951e-15 3.29597e-15 6.42065e-16 6.21031e-16 5.10876e-16 4.02456e-16 6.58111e-16
threshold=0.45974444065626502 0.74890959417477743 0.34202989454843147 2.4961818855181268 0.36524351724112064 5.6372294895217214 1.0000000180025095e-35 102.66208868803842 102.66208868803842 102.0920353982301 0.22550746277806749 0.26841984574329708 5.837262422724339 0.18378308728291415 77.732432432432446 4.5696785870856358 0.81000000000000016 499.72500000000008 27.500000000000004 40.500000000000007 0.22468809385023217 0.75469960092525101 0.87000000000000022 4.6763864841143592 107.13891535995843 0.12902839981235506 0.70156846611528711 0.28870545277353948 24.500000000000004 0.8591805611849731 0.94760828621211723 38.500000000000007 0.13931964458339582 0.23797481510569277 0.86949199018542866 0.12675669834332357 0.83692816964372885 84.017500000000027 0.73969340603807632 0.18818340268810238 0.18651490718622474 27.430000000000003 0.31667120962937984 399.96000000000004 105.07107023411372 0.80675199177809576 0.16834706759459261 0.15365405472113361 0.11453757026540233 60.901724137931048 0.86698318099067972 111.43741101091601 111.43741101091601 70.702970297029722 0.97099293381729146 0.31667120962937984 103.23318077803204 102.66208868803842 294.67500000000007 0.77432432533322826 112.22585227272729 0.27956415003914209 0.77793194624009543 0.20566614461394647 80.501304347826093 81.22456896551725 0.82186902356118774 0.012858483253328366 60.901724137931048 0.76242307173068846 0.75226806836452464 21.500000000000004 0.75871660034879118 0.25827565706967109 41.500000000000007 105.91001011122347 0.49224931935570843 193.02500000000003 0.85034802971214762 1171.97 0.73210951198214935 71.422058823529426 0.94756381481398899 0.20841752129374522 97.528329972150217 0.83474637516382011 313.57500000000005 0.27956415003914209 100.83140689904282 0.27550479925147353 6.5000000000000009 143.52000000000001 0.045228639525687765 0.16955228614242376 0.25117027048148438 41.500000000000007 95.337458745874599 8.5000000000000018 -0.0043193841621974351 102.01678240740743 97.528329972150217 0.086156440844165377 0.22199832473472872 0.3379285651366235 0.08752710763029703 0.16955228614242376 0.718336802868209 0.7612487619226479 0.72935971954121581 0.19180320900031309 0.73210951198214935 0.7371523449145938 0.73210951198214935 0.70817863465485842 0.71329032314102081 930.24000000000012 0.0254572802340098 103.89381808278868 73.538571428571444 0.11865026491782116 64.419565217391309 0.24434862056045856 294.67500000000007 28.310000000000006 0.22784208054581792 108.61786576533078 110.37228386500233
decision_type=2 2 2 2 2 2 2 2 2 2 2 2 2 2 2 2 2 2 2 2 2 2 2 2 2 2 2 2 2 2 2 2 2 2 2 2 2 2 2 2 2 2 2 2 2 2 2 2 2 2 2 2 2 2 2 2 2 2 2 2 2 2 2 2 2 2 2 2 2 2 2 2 2 2 2 2 2 2 2 2 2 2 2 2 2 2 2 2 2 2 2 2 2 2 2 2 2 2 2 2 2 2 2 2 2 2 2 2 2 2 2 2 2 2 2 2 2 2 2 2 2 2 2 2 2 2 2
left_child=1 2 3 13 6 15 8 -8 9 10 21 -12 14 25 16 -6 20 18 -18 -20 -10 22 -5 -24 -19 26 -1 28 29 33 32 -32 34 45 35 36 37 39 -39 40 41 67 48 44 -44 46 47 -27 49 50 63 55 61 86 56 59 57 58 -43 68 80 64 85 -41 66 -66 72 -30 71 79 84 -48 83 74 76 102 -74 -65 99 82 97 -82 87 89 -60 88 -54 93 -63 90 91 -51 103 100 113 107 -92 98 -58 -78 -70 -99 -76 -45 105 109 -67 -86 115 -98 120 -112 119 -79 118 116 122 -114 -93 123 121 -111 -90 -102 -113 -122 -127
right_child=-2 -3 -4 4 5 -7 7 -9 12 -11 11 -13 -14 -15 -16 -17 17 24 19 -21 -22 -23 23 -25 -26 27 -28 -29 30 -31 31 -33 -34 -35 -36 -37 -38 38 -40 42 -42 54 43 92 -46 -47 51 -49 -50 52 -52 -53 53 -55 -56 -57 60 -59 70 -61 -62 62 -64 77 65 106 -68 -69 69 -71 -72 -73 73 -75 75 -77 78 94 -80 -81 81 -83 -84 -85 95 -87 -88 -89 108 -91 96 114 -94 -95 -96 -97 104 101 -100 -101 112 -103 -104 -105 -106 -107 -108 -109 -110 110 111 124 117 -115 -116 -117 -118 -119 -120 -121 125 -123 -124 -125 -126 126 -128
leaf_value=-0.00019039793126285077 0.055038659529734968 -0.0081711039922175831 0.0025118628442878763 -0.00040124596339107178 -0.00057726857952348153 0.00019521533517399803 -0.00034384226896509067 -0.00090147798782918382 -0.00037162470593825239 -0.0013927836171351373 -0.0011563853523431831 -0.00016213168282919223 -0.00064967772318263225 -1.7209757397022958e-05 -0.00013939880011049554 -0.00027721724339805422 -0.00036861966058248817 -0.00027021722253452103 -0.00083558227017138187 -0.00039746993370842905 -8.0931245693651406e-05 -0.00051531917288509879 -0.00031157666269695925 -0.00011252881821798477 -0.00041905497743176641 -0.00031913795786338951 -0.00032250632193278183 -0.00036002471794684728 -0.00031967846816405656 -0.000489181435505788 -0.00022242336356277138 -0.00030220173559008314 -0.00032652421324545967 -0.00032136560314231452 -0.00031744152596541522 -0.00031971528499933157 -0.00031958142508495046 -0.00031913733752123247 -0.00031996113028517876 -0.00031927655982144643 -0.00031976986210793259 -0.00031936014262849797 -0.00031992634393128699 -0.00031913809561684951 -0.00031938971072997688 -0.00031946800072151036 -0.00031916647099469812 -0.00031953887029112071 -0.00031890209620961778 -0.00031907600727315772 -0.00031968305371336494 -0.0003194190294016153 -0.00031918120058253407 -0.00031953088706359266 -0.00031935919033871459 -0.00031932490137329356 -0.00031913881324917862 -0.00031945794234397237 -0.00031919901847909644 -0.00031903413068705606 -0.00031926058124684333 -0.00031909280611823004 -0.00031943469463537136 -0.00031921406168424128 -0.00031928990286989858 -0.000319138392741378 -0.00031901155691593883 -0.00031951998686417939 -0.00031913312169600211 -0.00031924398351168516 -0.00031906978595846644 -0.00031928181694820525 -0.00031902944513907038 -0.00031898949824084164 -0.00031914046490923143 -0.00031925700791180135 -0.00031913566892429932 -0.00031913876300677658 -0.00031906270672118776 -0.00031921358089535856 -0.00031913374256257012 -0.00031902892437453076 -0.00031920931767672302 -0.00031907261268665586 -0.00031913834408537223 -0.00031919247163127049 -0.00031911676580255682 -0.00031917453935260287 -0.00031913918167076732 -0.0003191042554060944 -0.00031913042689363165 -0.00031913909615275077 -0.00031910484610125423 -0.0003191161323159647 -0.00031911739684149342 -0.00031911801287116341 -0.00031913733035917322 -0.00031913871492790643 -0.00031912450026720765 -0.00031914243200966688 -0.00031913909787202583 -0.00031914473045617346 -0.0003191347704268992 -0.0003191426668737857 -0.00031914130428477251 -0.00031913543416356503 -0.00031914154952391986 -0.00031914102146402001 -0.00031914131795929279 -0.00031913879180425092 -0.00031914322733365258 -0.00031913857745087667 -0.00031913925256384047 -0.00031914104521274566 -0.00031914049759507179 -0.00031913767943122227 -0.00031914092088118195 -0.00031914079479654047 -0.00031913791270926596 -0.00031913789808405221 -0.00031913873606918212 -0.00031913968350476865 -0.00031913869401991923 -0.0003191387288906198 -0.00031913888490046655 -0.00031913909528135179 -0.00031913865158068286
leaf_weight=50 73 79 63 60 81 50 50 87 73 50 68 63 82 52 82 94 59 98 71 53 53 65 57 53 55 62 55 75 50 52 57 52 58 54 58 58 94 58 53 64 81 85 51 67 53 92 51 87 65 68 51 60 50 50 55 61 76 54 53 92 56 54 60 56 65 72 50 50 53 51 72 50 78 59 52 50 59 68 54 52 87 60 50 52 67 56 55 85 54 61 60 94 50 52 53 52 63 177 50 97 51 50 50 53 51 55 50 68 64 152 58 115 57 50 63 51 50 51 50 54 1099 57 54 432 102 83 56
